tree
version=v4
num_class=1
num_tree_per_iteration=1
label_index=0
max_feature_idx=34
objective=binary sigmoid:1
feature_names=Destination_Port Flow_Duration Total_Fwd_Packets Total_Length_of_Fwd_Packets Fwd_Packet_Length_Max Fwd_Packet_Length_Min Fwd_Packet_Length_Mean Bwd_Packet_Length_Max Bwd_Packet_Length_Min Flow_Bytes/s Flow_Packets/s Bwd_Packets/s Min_Packet_Length Max_Packet_Length Packet_Length_Mean Packet_Length_Variance Flow_IAT_Mean Flow_IAT_Std Flow_IAT_Max Flow_IAT_Min Fwd_IAT_Mean Fwd_IAT_Std Fwd_IAT_Min Bwd_IAT_Total Bwd_IAT_Mean Bwd_IAT_Std Bwd_IAT_Max Bwd_IAT_Min Fwd_Header_Length Bwd_Header_Length Init_Win_bytes_forward Init_Win_bytes_backward PSH_Flag_Count FIN_Flag_Count ACK_Flag_Count
feature_infos=[0:65534] [-1:119999992] [1:185980] [0:1034689] [0:24820] [0:2065] [0:4194.1944439999997] [0:13032] [0:1848] [-261000000:2071000000] [-2000000:3000000] [0:2000000] [0:1408] [0:24820] [0:2456] [0:19200000] [-1:119000000] [0:84800000] [-1:120000000] [-12:119000000] [0:120000000] [0:83700000] [0:120000000] [0:120000000] [0:120000000] [0:80863954.386141002] [0:120000000] [0:120000000] [-6442447920:3815468] [-83885125:5005340] [-1:65535] [-1:65535] [0:1] [0:1] [0:1]
tree_sizes=664 684 686 680 679 686 687 681 685 674 683 681 683 685 682 685 687 683 683 680 685 687 683 689 683 687 688 687 688 685 685 687 685 688 688 691 681 678 685 690 680 683 686 685 690 681 685 693 687 689 690 689 691 687 688 690 694 682 690 689 682 688 688 679 686 684 687 688 693 685 687 687 684 688 682 684 689 692 698 685 687 689 693 689 685 688 687 691 692 692 690 690 689 690 683 689 696 691 691 699

Tree=0
num_leaves=5
num_cat=0
split_feature=8 15 29 6
split_gain=55277.5 25413.2 30224.9 832.719
threshold=8.5000000000000018 1465670.8385000003 26.000000000000004 113.61578945000001
decision_type=2 2 2 2
left_child=1 2 -1 -3
right_child=-2 3 -4 -5
leaf_value=-1.3738442587084159 -1.4187671703268696 -1.3557778893381176 -1.409211471588693 -1.3732123123834283
leaf_weight=6862.7710403501987 4316.9608286768198 3829.7167178988457 3728.2275278866291 307.12139539420605
leaf_count=20128 27306 6006 20892 883
internal_value=-1.3873 -1.37808 -1.38629 -1.35706
internal_weight=19044.8 14727.8 10591 4136.84
internal_count=75215 47909 41020 6889
is_linear=0
shrinkage=1


Tree=1
num_leaves=5
num_cat=0
split_feature=5 0 20 4
split_gain=52415.5 32358.7 33805.4 7648.59
threshold=9.5000000000000018 257.50000000000006 1.0000000180025095e-35 420.50000000000006
decision_type=2 2 2 2
left_child=1 3 -3 -1
right_child=-2 2 -4 -5
leaf_value=0.043381789790506491 -0.012243892846026181 0.03276112978351544 -0.011797409762897552 0.003749175561402454
leaf_weight=7734.5870000422001 4235.0787369459867 3558.3210070133209 3262.855898603797 520.45700897276402
leaf_count=15179 26923 9985 20332 2651
internal_value=0.0188364 0.0275681 0.0114468 0.040885
internal_weight=19311.3 15076.2 6821.18 8255.04
internal_count=75070 48147 30317 17830
is_linear=0
shrinkage=0.01


Tree=2
num_leaves=5
num_cat=0
split_feature=8 3 28 18
split_gain=50997.4 18389.2 10902.9 7207.63
threshold=8.5000000000000018 424.50000000000006 22.000000000000004 79650000.000000015
decision_type=2 2 2 2
left_child=1 2 -1 -3
right_child=-2 3 -4 -5
leaf_value=-0.011201218386950743 -0.012376076760277832 -0.0061303489635808773 0.033519120825013057 0.041635414635742017
leaf_weight=569.69121898710728 4248.8274748623371 2019.0224706530571 12281.775442749262 373.45394493639469
leaf_count=3421 27281 11833 31960 724
internal_value=0.0182574 0.0267966 0.0315352 0.00133576
internal_weight=19492.8 15243.9 12851.5 2392.48
internal_count=75219 47938 35381 12557
is_linear=0
shrinkage=0.01


Tree=3
num_leaves=5
num_cat=0
split_feature=8 15 29 4
split_gain=48810 21536.4 26470.2 759.824
threshold=8.5000000000000018 1465670.8385000003 22.000000000000004 392.50000000000006
decision_type=2 2 2 2
left_child=1 2 -1 -3
right_child=-2 3 -4 -5
leaf_value=0.029882386376449622 -0.012356119985962652 0.045855685737592175 -0.0027269207182383922 0.030170049698977852
leaf_weight=7185.5280859172344 4192.3456554114819 4113.6369001865387 3807.3956420570612 346.63242933154106
leaf_count=19982 27128 5949 20978 955
internal_value=0.0179024 0.0261122 0.018588 0.0446459
internal_weight=19645.5 15453.2 10992.9 4460.27
internal_count=74992 47864 40960 6904
is_linear=0
shrinkage=0.01


Tree=4
num_leaves=5
num_cat=0
split_feature=5 0 3 22
split_gain=46530.6 27721.3 32385 6411.25
threshold=9.5000000000000018 257.50000000000006 2.5000000000000004 2128.0000000000005
decision_type=2 2 2 2
left_child=1 3 -3 -1
right_child=-2 2 -4 -5
leaf_value=0.039969544992449216 -0.012156167609789161 0.030911208262365108 -0.012085284556435818 0.008435197255348784
leaf_weight=7991.9256962686777 4150.097855091095 3728.2285120785236 3302.4245418906212 702.85103157162666
leaf_count=14641 26967 9799 20445 3109
internal_value=0.0176239 0.025484 0.0107147 0.0374228
internal_weight=19875.5 15725.4 7030.65 8694.78
internal_count=74961 47994 30244 17750
is_linear=0
shrinkage=0.01


Tree=5
num_leaves=5
num_cat=0
split_feature=5 31 13 31
split_gain=44561.7 33230.2 9304.94 234.995
threshold=9.5000000000000018 247.50000000000003 4342.5000000000009 28760.000000000004
decision_type=2 2 2 2
left_child=1 2 -1 -3
right_child=-2 3 -4 -5
leaf_value=0.024822012474075745 -0.01207734957029606 -0.011911953280126061 0.042272368364303883 -0.0043953699650064364
leaf_weight=8940.9259959310293 4117.5935161709785 1769.6197453886271 4652.7723230570555 551.89080283045769
leaf_count=27288 26941 10940 6713 3010
internal_value=0.0172408 0.0248269 0.0307982 -0.010132
internal_weight=20032.8 15915.2 13593.7 2321.51
internal_count=74892 47951 34001 13950
is_linear=0
shrinkage=0.01


Tree=6
num_leaves=5
num_cat=0
split_feature=5 31 0 0
split_gain=42752.4 31945.4 14811.5 205.294
threshold=9.5000000000000018 247.50000000000003 257.50000000000006 257.50000000000006
decision_type=2 2 2 2
left_child=1 2 -1 -3
right_child=-2 3 -4 -5
leaf_value=0.038261197783577436 -0.012087125745363263 -0.0051255096168642354 0.017030228023071806 -0.011956304405184142
leaf_weight=8373.6022694408894 4079.0966630876064 602.58021225035191 5415.7905502021313 1715.6984927803278
leaf_count=14318 26906 3344 19659 10699
internal_value=0.0168278 0.0241511 0.0299253 -0.0101881
internal_weight=20186.8 16107.7 13789.4 2318.28
internal_count=74926 48020 33977 14043
is_linear=0
shrinkage=0.01


Tree=7
num_leaves=5
num_cat=0
split_feature=8 15 4 4
split_gain=42416.6 17130.1 23439.6 504.237
threshold=8.5000000000000018 1465670.8385000003 30.500000000000004 392.50000000000006
decision_type=2 2 2 2
left_child=1 2 -1 -3
right_child=-2 3 -4 -5
leaf_value=0.025280558350773336 -0.012215717544552132 0.040371787767604042 -0.0079557070251201154 0.028317759588105496
leaf_weight=8653.7990156412125 4070.996798068285 4542.8905230909586 2810.0224521309137 393.69320899248123
leaf_count=24420 27134 6012 16493 979
internal_value=0.0166719 0.0238435 0.0171328 0.0394184
internal_weight=20471.4 16400.4 11463.8 4936.58
internal_count=75038 47904 40913 6991
is_linear=0
shrinkage=0.01


Tree=8
num_leaves=5
num_cat=0
split_feature=8 3 14 16
split_gain=41005.9 14503.7 9543.52 6476.82
threshold=8.5000000000000018 424.50000000000006 643.90909090910009 5313634.3845000016
decision_type=2 2 2 2
left_child=1 2 -1 -3
right_child=-2 3 -4 -5
leaf_value=0.021563152157369817 -0.012197964178778701 -0.0073418944357704387 0.039161990849420396 0.033960335563705653
leaf_weight=9710.5846637785435 4041.2330293059349 1952.1194023936987 4521.2554194182158 470.28308743238449
leaf_count=29718 27150 11575 5884 881
internal_value=0.0163734 0.0233073 0.0271571 0.000683062
internal_weight=20695.5 16654.2 14231.8 2422.4
internal_count=75208 48058 35602 12456
is_linear=0
shrinkage=0.01


Tree=9
num_leaves=5
num_cat=0
split_feature=8 7 4 3
split_gain=39448 14938.7 21817.9 460.247
threshold=8.5000000000000018 4342.5000000000009 30.500000000000004 690.50000000000011
decision_type=2 2 2 2
left_child=1 2 -1 -3
right_child=-2 3 -4 -5
leaf_value=0.024313794884777577 -0.01217084193816639 0.038080922922999895 -0.007677609991361938 0.026264097871117151
leaf_weight=8946.2635082602501 3963.595949023962 4707.1680813729763 2797.5108240991831 371.10905046761036
leaf_count=24528 26834 6016 16364 931
internal_value=0.016206 0.022893 0.0166922 0.0372247
internal_weight=20785.6 16822.1 11743.8 5078.28
internal_count=74673 47839 40892 6947
is_linear=0
shrinkage=0.01


Tree=10
num_leaves=5
num_cat=0
split_feature=8 13 29 3
split_gain=38401.3 13068.1 20946.4 1789.62
threshold=8.5000000000000018 4342.5000000000009 26.000000000000004 756.50000000000011
decision_type=2 2 2 2
left_child=1 2 -1 -3
right_child=-2 3 -4 -5
leaf_value=0.025726752317788461 -0.012144370842338076 0.037019969960824434 -0.0027260293911556899 0.01401769822381513
leaf_weight=7984.1790220439434 3973.9745405465364 4920.1441446989775 3826.4474315494299 366.48020730912685
leaf_count=20259 27115 6183 20367 1316
internal_value=0.015853 0.0223614 0.0165082 0.0354302
internal_weight=21071.2 17097.3 11810.6 5286.62
internal_count=75240 48125 40626 7499
is_linear=0
shrinkage=0.01


Tree=11
num_leaves=5
num_cat=0
split_feature=8 0 8 22
split_gain=37061.1 21555 32299.2 4614.88
threshold=8.5000000000000018 124.00000000000001 3.0000000000000004 2128.0000000000005
decision_type=2 2 2 2
left_child=1 3 -3 -1
right_child=-2 2 -4 -5
leaf_value=0.033667512589433242 -0.012117880651023554 -0.012333596267364995 0.02924997108534667 0.0079136327720796262
leaf_weight=8994.0192155241966 3939.252031698823 3622.8211080431938 3853.5818614065647 756.01691193878651
leaf_count=14444 27090 21722 8711 3096
internal_value=0.0155497 0.0218774 0.00909964 0.0316726
internal_weight=21165.7 17226.4 7476.4 9750.04
internal_count=75063 47973 30433 17540
is_linear=0
shrinkage=0.01


Tree=12
num_leaves=5
num_cat=0
split_feature=5 31 0 0
split_gain=35372.9 27583.4 10905.3 165.309
threshold=9.5000000000000018 247.50000000000003 257.50000000000006 257.50000000000006
decision_type=2 2 2 2
left_child=1 2 -1 -3
right_child=-2 3 -4 -5
leaf_value=0.033045110115359447 -0.011964329044101021 -0.0059649802910061523 0.015538133277867201 -0.012103836519797585
leaf_weight=9282.7611494362354 3896.4816835671663 600.30509942770004 5778.6609463393688 1743.786820307374
leaf_count=14447 26910 3280 19683 10779
internal_value=0.015267 0.021364 0.0263303 -0.0105392
internal_weight=21302 17405.5 15061.4 2344.09
internal_count=75099 48189 34130 14059
is_linear=0
shrinkage=0.01


Tree=13
num_leaves=5
num_cat=0
split_feature=7 6 28 25
split_gain=24590.4 40448.7 7305.64 1110.27
threshold=4342.5000000000009 12.666666668350002 22.000000000000004 27550000.000000004
decision_type=2 2 2 2
left_child=1 2 -1 -3
right_child=-2 3 -4 -5
leaf_value=-0.011860917816112926 0.033651343306027898 -0.010559418522965403 0.024482076006823818 0.018018421410737961
leaf_weight=589.27521541714668 5291.631046757102 6561.6978318691254 8794.8756992816925 137.69545333087444
leaf_count=3321 6800 42956 21534 477
internal_value=0.0149533 0.00879919 0.0221978 -0.00996795
internal_weight=21375.2 16083.5 9384.15 6699.39
internal_count=75088 68288 24855 43433
is_linear=0
shrinkage=0.01


Tree=14
num_leaves=5
num_cat=0
split_feature=15 4 31 25
split_gain=24597.9 39531 13804.5 1196.11
threshold=1465670.8385000003 26.500000000000004 247.50000000000003 25450000.000000004
decision_type=2 2 2 2
left_child=1 2 -1 -3
right_child=-2 3 -4 -5
leaf_value=0.026332961309390692 0.032922223237034857 -0.010788741032599247 -0.0097190180061028208 0.023817091572113681
leaf_weight=8138.3830185681581 5487.21880222857 6545.7088890820742 1220.5168266743422 100.34025433659554
leaf_count=17886 6921 43181 6799 309
internal_value=0.0146525 0.00838657 0.0216297 -0.0102613
internal_weight=21492.2 16004.9 9358.9 6646.05
internal_count=75096 68175 24685 43490
is_linear=0
shrinkage=0.01


Tree=15
num_leaves=5
num_cat=0
split_feature=8 31 0 0
split_gain=32494.2 23920.7 10056.5 140.889
threshold=8.5000000000000018 247.50000000000003 121.00000000000001 257.50000000000006
decision_type=2 2 2 2
left_child=1 2 -1 -3
right_child=-2 3 -4 -5
leaf_value=0.03098411677525208 -0.012014332482212994 -0.006162074209978159 0.014438343056706205 -0.011876868016907158
leaf_weight=9438.4788251370192 3828.9641617685556 601.04125185310841 6023.4453669190407 1647.911133274436
leaf_count=14080 27098 3310 20142 10233
internal_value=0.0143972 0.0201082 0.0245404 -0.0103574
internal_weight=21539.8 17710.9 15461.9 2248.95
internal_count=74863 47765 34222 13543
is_linear=0
shrinkage=0.01


Tree=16
num_leaves=5
num_cat=0
split_feature=8 31 15 31
split_gain=31566.9 23228.1 5476.11 128.432
threshold=8.5000000000000018 247.50000000000003 1465670.8385000003 28760.000000000004
decision_type=2 2 2 2
left_child=1 2 -1 -3
right_child=-2 3 -4 -5
leaf_value=0.019694722586103587 -0.011989192721268764 -0.011782577686835456 0.032053062249609743 -0.0061425215738051256
leaf_weight=10079.166131168604 3782.5013411045074 1679.8597768098116 5580.7715587466955 547.73457975685596
leaf_count=27631 26984 10506 6515 2999
internal_value=0.0142532 0.0198034 0.0241013 -0.0104036
internal_weight=21670 17887.5 15659.9 2227.59
internal_count=74635 47651 34146 13505
is_linear=0
shrinkage=0.01


Tree=17
num_leaves=5
num_cat=0
split_feature=8 0 8 4
split_gain=30900.6 15808.3 30209.5 3727.09
threshold=8.5000000000000018 124.00000000000001 3.0000000000000004 420.50000000000006
decision_type=2 2 2 2
left_child=1 3 -3 -1
right_child=-2 2 -4 -5
leaf_value=0.029018661970193548 -0.01197579542470294 -0.012462683833517594 0.026960152599887401 0.0022755419064447867
leaf_weight=9774.3414748609066 3774.0735387206078 3613.2619543969631 4204.280973687768 551.52498817443848
leaf_count=14855 27142 21573 8879 2653
internal_value=0.0140542 0.0194697 0.00873841 0.0275916
internal_weight=21917.5 18143.4 7817.54 10325.9
internal_count=75102 47960 30452 17508
is_linear=0
shrinkage=0.01


Tree=18
num_leaves=5
num_cat=0
split_feature=8 0 8 22
split_gain=29930.5 15895.8 28071.8 3726.23
threshold=8.5000000000000018 121.00000000000001 3.0000000000000004 2450.5000000000005
decision_type=2 2 2 2
left_child=1 3 -3 -1
right_child=-2 2 -4 -5
leaf_value=0.028764221766806743 -0.011930872471952641 -0.012358916291993894 0.02587389028488029 0.0059197937233538521
leaf_weight=9632.7746334373951 3779.0088655054569 3583.012764826417 4136.0302584916353 773.0233375877142
leaf_count=14350 27386 21524 8810 3054
internal_value=0.0136654 0.0190031 0.00812645 0.0270689
internal_weight=21903.8 18124.8 7719.04 10405.8
internal_count=75124 47738 30334 17404
is_linear=0
shrinkage=0.01


Tree=19
num_leaves=5
num_cat=0
split_feature=8 15 29 7
split_gain=29491.4 9752.03 18384.1 65.2002
threshold=8.5000000000000018 1465670.8385000003 26.000000000000004 4346.5000000000009
decision_type=2 2 2 2
left_child=1 2 -1 -3
right_child=-2 3 -4 -5
leaf_value=0.021981946190355258 -0.011939093120893599 0.027329023005238571 -0.0040658993356434857 0.030218386203228264
leaf_weight=8805.055820196867 3732.0615064948797 1208.1953806579113 3912.5516283661127 4588.238551363349
leaf_count=20281 27276 1769 20867 5148
internal_value=0.0137015 0.018871 0.0139679 0.0296227
internal_weight=22246.1 18514 12717.6 5796.43
internal_count=75341 48065 41148 6917
is_linear=0
shrinkage=0.01


Tree=20
num_leaves=5
num_cat=0
split_feature=5 0 11 22
split_gain=27954.2 14929.8 24098.5 3455.07
threshold=9.5000000000000018 257.50000000000006 9111.6645910000025 2128.0000000000005
decision_type=2 2 2 2
left_child=1 3 -3 -1
right_child=-2 2 -4 -5
leaf_value=0.027626360009835708 -0.011698443678929199 -0.0120085909061819 0.023553074298450716 0.0058085448263843773
leaf_weight=9989.3159776031971 3692.7529352903366 3416.8253490328789 4305.3967710882425 784.62390814721584
leaf_count=14680 27042 20443 9725 3059
internal_value=0.0134175 0.0184328 0.00781741 0.0260391
internal_weight=22188.9 18496.2 7722.22 10773.9
internal_count=74949 47907 30168 17739
is_linear=0
shrinkage=0.01


Tree=21
num_leaves=5
num_cat=0
split_feature=8 31 15 31
split_gain=27802.1 20559.4 4377.33 136.008
threshold=8.5000000000000018 247.50000000000003 1465670.8385000003 16388.000000000004
decision_type=2 2 2 2
left_child=1 2 -1 -3
right_child=-2 3 -4 -5
leaf_value=0.018303708275923005 -0.01188193887334447 -0.011584267533670622 0.029050810715836095 -0.006018350525186459
leaf_weight=10598.965907216072 3645.4109236896038 1631.3496218770742 5917.6325190216303 617.95578621327877
leaf_count=27801 27068 10196 6563 3354
internal_value=0.0133845 0.0182936 0.0221564 -0.0100629
internal_weight=22411.3 18765.9 16516.6 2249.31
internal_count=74982 47914 34364 13550
is_linear=0
shrinkage=0.01


Tree=22
num_leaves=5
num_cat=0
split_feature=8 31 9 31
split_gain=26855 19922.9 5183.48 153.834
threshold=8.5000000000000018 247.50000000000003 914963.14836063853 28760.000000000004
decision_type=2 2 2 2
left_child=1 2 -1 -3
right_child=-2 3 -4 -5
leaf_value=0.022845903057281541 -0.011870237841200709 -0.011725419649823227 -0.0045206897698509838 -0.0055871345487895543
leaf_weight=15934.92799821496 3606.775937795639 1669.7099477797747 722.59478969871998 553.73337337374687
leaf_count=31062 27003 10524 3436 2999
internal_value=0.0131286 0.0179049 0.021658 -0.0102044
internal_weight=22487.7 18881 16657.5 2223.44
internal_count=75024 48021 34498 13523
is_linear=0
shrinkage=0.01


Tree=23
num_leaves=5
num_cat=0
split_feature=30 0 11 22
split_gain=25655.2 14337.9 23147.2 3222.48
threshold=-1.0000000180025095e-35 257.50000000000006 8714.6383140000016 2128.0000000000005
decision_type=2 2 2 2
left_child=-1 3 -3 -2
right_child=1 2 -4 -5
leaf_value=-0.011871269450472321 0.026327201463350432 -0.012162518490611857 0.022327326628124068 0.005596291422235453
leaf_weight=3526.682895720005 10297.595998048782 3466.859557107091 4432.3419021964073 810.70354379713535
leaf_count=26557 14684 20751 9862 3130
internal_value=0.0128956 0.0174918 0.00718928 0.0248158
internal_weight=22534.2 19007.5 7899.2 11108.3
internal_count=74984 48427 30613 17814
is_linear=0
shrinkage=0.01


Tree=24
num_leaves=5
num_cat=0
split_feature=0 31 0 0
split_gain=18493.8 20377.8 7680.63 5316.43
threshold=61.500000000000007 236.50000000000003 80.500000000000014 51.000000000000007
decision_type=2 2 2 2
left_child=3 2 -2 -1
right_child=1 -3 -4 -5
leaf_value=0.023145832498442084 0.02631997404415385 -0.010353480819620103 0.012344026943569238 -0.011811501772696315
leaf_weight=498.60344642400742 9841.172750800848 2418.9170419275761 6559.4626985192299 3361.7346775531769
leaf_count=988 13138 14783 20950 25595
internal_value=0.0126458 0.0167356 0.020732 -0.00728898
internal_weight=22679.9 18819.6 16400.6 3860.34
internal_count=75454 48871 34088 26583
is_linear=0
shrinkage=0.01


Tree=25
num_leaves=5
num_cat=0
split_feature=8 0 4 32
split_gain=24832.2 13682.4 10423.4 3493.27
threshold=8.5000000000000018 33014.000000000007 420.50000000000006 1.0000000180025095e-35
decision_type=2 2 2 2
left_child=1 2 -1 -3
right_child=-2 3 -4 -5
leaf_value=0.022248250570717023 -0.01177232511197817 -0.012898510101748898 -0.0064865981616903517 0.02413745440638751
leaf_weight=15721.014600425959 3549.6300239264965 1738.579598069191 1371.5899831205606 297.25891423225403
leaf_count=29487 27199 9764 8027 594
internal_value=0.0125149 0.0170227 0.0199416 -0.00747667
internal_weight=22678.1 19128.4 17092.6 2035.84
internal_count=75071 47872 37514 10358
is_linear=0
shrinkage=0.01


Tree=26
num_leaves=5
num_cat=0
split_feature=8 31 4 31
split_gain=23978.4 18456.6 4996.73 119.616
threshold=8.5000000000000018 247.50000000000003 420.50000000000006 28760.000000000004
decision_type=2 2 2 2
left_child=1 2 -1 -3
right_child=-2 3 -4 -5
leaf_value=0.021474733698649658 -0.011773044108172606 -0.011709412952896901 -0.0037507130198489408 -0.0062652131960862466
leaf_weight=16162.398014217615 3493.970893830061 1675.800595074892 824.35688731074333 549.07217225432396
leaf_count=30030 27001 10644 4255 3011
internal_value=0.0123198 0.0167025 0.0202498 -0.0103738
internal_weight=22705.6 19211.6 16986.8 2224.87
internal_count=74941 47940 34285 13655
is_linear=0
shrinkage=0.01


Tree=27
num_leaves=5
num_cat=0
split_feature=8 4 15 15
split_gain=23359.3 8365.01 8174.44 366.545
threshold=8.5000000000000018 420.50000000000006 4.9714285714500006 39792.806875000002
decision_type=2 2 2 2
left_child=1 2 -1 -3
right_child=-2 3 -4 -5
leaf_value=0.0086392976484970883 -0.011751743134569908 0.0049737846130123806 0.023056409961873716 -0.00867814402907203
leaf_weight=5870.6397602558136 3474.1543537676334 232.15022994577885 11940.182255133986 1236.9634397625923
leaf_count=18653 27069 1117 20632 7531
internal_value=0.0121127 0.0164138 0.0183057 -0.00651214
internal_weight=22754.1 19279.9 17810.8 1469.11
internal_count=75002 47933 39285 8648
is_linear=0
shrinkage=0.01


Tree=28
num_leaves=5
num_cat=0
split_feature=8 0 3 34
split_gain=23004.9 12618.1 9667.63 3324.35
threshold=8.5000000000000018 33014.000000000007 424.50000000000006 1.0000000180025095e-35
decision_type=2 2 2 2
left_child=1 2 -1 -3
right_child=-2 3 -4 -5
leaf_value=0.022037097259002839 -0.011730956185444934 0.020871521753135714 0.00046183509408586232 -0.012821207594665025
leaf_weight=14933.103332564235 3460.6167053729296 351.8663853853941 2413.496807038784 1717.7652931064367
leaf_count=25694 27185 753 11752 9621
internal_value=0.0120177 0.0162514 0.019036 -0.00708083
internal_weight=22876.8 19416.2 17346.6 2069.63
internal_count=75005 47820 37446 10374
is_linear=0
shrinkage=0.01


Tree=29
num_leaves=5
num_cat=0
split_feature=8 31 0 0
split_gain=22451.3 17147.1 7479.86 164.39
threshold=8.5000000000000018 247.50000000000003 33014.000000000007 257.50000000000006
decision_type=2 2 2 2
left_child=1 2 -1 -3
right_child=-2 3 -4 -5
leaf_value=0.02135190212827839 -0.011709533330116182 -0.0057166631828522753 -0.0038653757299061137 -0.011869780857400149
leaf_weight=15995.163297325373 3396.4880147576332 612.52576677501202 1268.5817409604788 1583.6479974538088
leaf_count=28323 26905 3250 5651 10212
internal_value=0.0120093 0.01615 0.0194982 -0.0101616
internal_weight=22856.4 19459.9 17263.7 2196.17
internal_count=74341 47436 33974 13462
is_linear=0
shrinkage=0.01


Tree=30
num_leaves=5
num_cat=0
split_feature=8 31 4 31
split_gain=21715 16885.3 4399.71 92.3951
threshold=8.5000000000000018 247.50000000000003 420.50000000000006 28760.000000000004
decision_type=2 2 2 2
left_child=1 2 -1 -3
right_child=-2 3 -4 -5
leaf_value=0.020208833931541031 -0.011677327085235049 -0.011471390906516847 -0.0035560462256017762 -0.0066426827698645146
leaf_weight=16575.22178556025 3372.9743232354522 1659.85814486444 816.41118612885475 542.72739776968956
leaf_count=29962 26934 10623 4164 2998
internal_value=0.0117544 0.0157888 0.0190925 -0.0102897
internal_weight=22967.2 19594.2 17391.6 2202.59
internal_count=74681 47747 34126 13621
is_linear=0
shrinkage=0.01


Tree=31
num_leaves=5
num_cat=0
split_feature=5 15 29 5
split_gain=20941.8 7755.09 14424.4 68.1753
threshold=9.5000000000000018 1465670.8385000003 26.000000000000004 78.500000000000014
decision_type=2 2 2 2
left_child=1 2 -1 -2
right_child=3 -3 -4 -5
leaf_value=0.017984571660168119 -0.011717632914216602 0.024635873319262799 -0.004579406574529891 -0.0032801363106250815
leaf_weight=9305.1956398561597 3299.0583633631468 6218.3597494065762 4071.7317845821381 103.00740246474743
leaf_count=19991 26429 6892 21160 675
internal_value=0.0114315 0.0154078 0.0111159 -0.0114661
internal_weight=22997.4 19595.3 13376.9 3402.07
internal_count=75147 48043 41151 27104
is_linear=0
shrinkage=0.01


Tree=32
num_leaves=5
num_cat=0
split_feature=8 0 2 32
split_gain=20665.3 11611.3 8713 3597.13
threshold=8.5000000000000018 33014.000000000007 9.5000000000000018 1.0000000180025095e-35
decision_type=2 2 2 2
left_child=1 2 -1 -3
right_child=-2 3 -4 -5
leaf_value=0.02010502546946177 -0.011626459164877721 -0.012879340730565039 -0.0044860181381635314 0.023064435724195267
leaf_weight=16012.884733334184 3344.7061421498656 1740.7319708764553 1582.2136396765709 330.30153442919254
leaf_count=28771 27138 9773 8685 596
internal_value=0.0113484 0.0152567 0.017893 -0.00713361
internal_weight=23010.8 19666.1 17595.1 2071.03
internal_count=74963 47825 37456 10369
is_linear=0
shrinkage=0.01


Tree=33
num_leaves=5
num_cat=0
split_feature=8 0 3 32
split_gain=20429.7 11538.5 8598.38 3429.34
threshold=8.5000000000000018 33014.000000000007 424.50000000000006 1.0000000180025095e-35
decision_type=2 2 2 2
left_child=1 2 -1 -3
right_child=-2 3 -4 -5
leaf_value=0.020508134424819621 -0.011618656855586417 -0.012869008464269912 0.00036449794719714177 0.022414091268728148
leaf_weight=15498.124188423157 3313.8076970353723 1729.1485312134027 2455.8665113896132 326.53222304582596
leaf_count=25804 27116 9768 11857 595
internal_value=0.011375 0.0151839 0.0177535 -0.00725147
internal_weight=23323.5 20009.7 17954 2055.68
internal_count=75140 48024 37661 10363
is_linear=0
shrinkage=0.01


Tree=34
num_leaves=5
num_cat=0
split_feature=8 31 0 0
split_gain=20058.5 15403.9 6664.42 115.555
threshold=8.5000000000000018 247.50000000000003 33014.000000000007 257.50000000000006
decision_type=2 2 2 2
left_child=1 2 -1 -3
right_child=-2 3 -4 -5
leaf_value=0.019795432172880673 -0.01161146758913047 -0.0064369192383644568 -0.0036705846202837182 -0.011623220732954754
leaf_weight=16545.576383665204 3291.1659269332886 615.18819853663445 1304.7091416716576 1550.0037292391062
leaf_count=28608 27159 3290 5719 10116
internal_value=0.0112621 0.0150241 0.0180796 -0.0101579
internal_weight=23306.6 20015.5 17850.3 2165.19
internal_count=74892 47733 34327 13406
is_linear=0
shrinkage=0.01


Tree=35
num_leaves=5
num_cat=0
split_feature=30 31 9 31
split_gain=19169.6 15454.8 3858.58 132.476
threshold=-1.0000000180025095e-35 247.50000000000003 914963.14836063853 28760.000000000004
decision_type=2 2 2 2
left_child=-1 2 -2 -3
right_child=1 3 -4 -5
leaf_value=-0.011642760300969722 0.018717500925671673 -0.011481980389932625 -0.0049506380142224108 -0.005775755236711224
leaf_weight=3206.8718161433935 17203.948360398412 1688.4504642337561 716.45955413579941 551.1910674571991
leaf_count=26570 31236 11019 3187 3024
internal_value=0.0110624 0.014675 0.0177705 -0.0100853
internal_weight=23366.9 20160 17920.4 2239.64
internal_count=75036 48466 34423 14043
is_linear=0
shrinkage=0.01


Tree=36
num_leaves=5
num_cat=0
split_feature=8 15 4 4
split_gain=19028.3 7265.22 12719 142.944
threshold=8.5000000000000018 1465670.8385000003 30.500000000000004 389.50000000000006
decision_type=2 2 2 2
left_child=1 2 -1 -3
right_child=-2 3 -4 -5
leaf_value=0.015440514240224381 -0.011586776321855959 0.023686548004527751 -0.0080667881313259589 0.017918097702127874
leaf_weight=10673.400988355279 3240.7495495602489 5972.7850467413664 2933.1405998468399 497.13302338123322
leaf_count=24240 27189 6033 16565 974
internal_value=0.0108933 0.0145229 0.0103721 0.0232477
internal_weight=23317.2 20076.5 13606.5 6469.92
internal_count=75001 47812 40805 7007
is_linear=0
shrinkage=0.01


Tree=37
num_leaves=5
num_cat=0
split_feature=8 0 8 22
split_gain=18552.6 10832.3 21894.2 2775.14
threshold=8.5000000000000018 124.00000000000001 3.0000000000000004 2128.0000000000005
decision_type=2 2 2 2
left_child=1 3 -3 -1
right_child=-2 2 -4 -5
leaf_value=0.021824504509610074 -0.011555072395294666 -0.01274880126649266 0.019878777544114878 0.0027774463069848978
leaf_weight=10924.83456133306 3218.643847130239 3657.5341004431248 4695.7315911650658 824.17611958086491
leaf_count=14473 27233 21433 8779 3059
internal_value=0.0107308 0.0143 0.00559156 0.0204896
internal_weight=23320.9 20102.3 8353.27 11749
internal_count=74977 47744 30212 17532
is_linear=0
shrinkage=0.01


Tree=38
num_leaves=5
num_cat=0
split_feature=8 31 9 31
split_gain=18223.2 14309.1 4112.2 126.691
threshold=8.5000000000000018 247.50000000000003 1243135.5655000003 28760.000000000004
decision_type=2 2 2 2
left_child=1 2 -1 -3
right_child=-2 3 -4 -5
leaf_value=0.01803497975735879 -0.011523827187177793 -0.011448570408431542 -0.0070852392759769905 -0.0058234535009660769
leaf_weight=17523.005200862885 3181.7433822005987 1626.3077367991209 675.75441181659698 546.94462090730667
leaf_count=31299 27143 10567 3199 2993
internal_value=0.0107287 0.014205 0.0171013 -0.0100408
internal_weight=23553.8 20372 18198.8 2173.25
internal_count=75201 48058 34498 13560
is_linear=0
shrinkage=0.01


Tree=39
num_leaves=5
num_cat=0
split_feature=8 31 9 31
split_gain=18010.4 14204.7 3776.31 99.2098
threshold=8.5000000000000018 247.50000000000003 956036.20188780513 28760.000000000004
decision_type=2 2 2 2
left_child=1 2 -1 -3
right_child=-2 3 -4 -5
leaf_value=0.017795606799628647 -0.011531500662570346 -0.011505648435299916 -0.0050523383524441667 -0.0064921596250966333
leaf_weight=17608.441531479359 3190.2893174737692 1615.8986203819513 753.27098485827446 542.98261971771717
leaf_count=31278 27452 10613 3397 3019
internal_value=0.0105679 0.0140045 0.0168575 -0.0102529
internal_weight=23710.9 20520.6 18361.7 2158.88
internal_count=75759 48307 34675 13632
is_linear=0
shrinkage=0.01


Tree=40
num_leaves=5
num_cat=0
split_feature=8 7 4 2
split_gain=17100 6713.67 12055.6 97.4671
threshold=8.5000000000000018 4342.5000000000009 28.500000000000004 8.5000000000000018
decision_type=2 2 2 2
left_child=1 2 -1 -3
right_child=-2 3 -4 -5
leaf_value=0.014579182532512865 -0.011500275836725733 0.022679013651221158 -0.0082908309684766469 0.018908178088790428
leaf_weight=10857.519569069147 3123.5737093389034 5465.0927584916353 2924.7232962474227 869.8589159399271
leaf_count=24318 27103 5438 16527 1369
internal_value=0.0102639 0.013644 0.00972497 0.0221659
internal_weight=23240.8 20117.2 13782.2 6334.95
internal_count=74755 47652 40845 6807
is_linear=0
shrinkage=0.01


Tree=41
num_leaves=5
num_cat=0
split_feature=8 0 8 29
split_gain=16970.7 10195.1 21098 1469.32
threshold=8.5000000000000018 121.00000000000001 3.0000000000000004 266.00000000000006
decision_type=2 2 2 2
left_child=1 3 -3 -1
right_child=-2 2 -4 -5
leaf_value=0.020268038713733949 -0.011469645525537085 -0.012766673288423114 0.019008530203127656 0.0021979117229285446
leaf_weight=11496.651236996055 3106.4823171570897 3686.5561532080173 4820.7609932869673 469.87656915187836
leaf_count=15650 27179 21618 8782 1946
internal_value=0.010305 0.0136097 0.00523802 0.0195596
internal_weight=23580.3 20473.8 8507.32 11966.5
internal_count=75175 47996 30400 17596
is_linear=0
shrinkage=0.01


Tree=42
num_leaves=5
num_cat=0
split_feature=8 31 0 0
split_gain=16608 13278.6 6168.8 138.252
threshold=8.5000000000000018 247.50000000000003 33014.000000000007 257.50000000000006
decision_type=2 2 2 2
left_child=1 2 -1 -3
right_child=-2 3 -4 -5
leaf_value=0.017838733568856766 -0.011464745879484846 -0.0060462703632238688 -0.0047723148879609779 -0.011705267829627141
leaf_weight=16986.473024889827 3070.9222092777491 620.05269776284695 1297.7057358324528 1522.1190644651651
leaf_count=28547 27103 3306 5684 10228
internal_value=0.0102133 0.0134733 0.0162332 -0.0100755
internal_weight=23497.3 20426.4 18284.2 2142.17
internal_count=74868 47765 34231 13534
is_linear=0
shrinkage=0.01


Tree=43
num_leaves=5
num_cat=0
split_feature=8 15 3 3
split_gain=16300.5 6384.96 12052.6 157.446
threshold=8.5000000000000018 1465670.8385000003 2.5000000000000004 703.50000000000011
decision_type=2 2 2 2
left_child=1 2 -1 -3
right_child=-2 3 -4 -5
leaf_value=0.018040642512190157 -0.011447653218814227 0.021897872534244297 -0.00061440014932975741 0.015760514126390738
leaf_weight=7546.9324717670679 3055.0625285506248 6071.8180437833071 6397.7135430276394 475.23296369612217
leaf_count=13954 27191 6012 26896 964
internal_value=0.0100961 0.0133089 0.00948168 0.0214564
internal_weight=23546.8 20491.7 13944.6 6547.05
internal_count=75017 47826 40850 6976
is_linear=0
shrinkage=0.01


Tree=44
num_leaves=5
num_cat=0
split_feature=30 15 3 3
split_gain=15759.9 6306.07 11819.1 153.448
threshold=-1.0000000180025095e-35 1465670.8385000003 2.5000000000000004 676.50000000000011
decision_type=2 2 2 2
left_child=-1 2 -2 -3
right_child=1 3 -4 -5
leaf_value=-0.011486583463597638 0.017812944286833939 0.021634000528703012 -0.00056576200437222376 0.015676639067565709
leaf_weight=2992.1649333387613 7549.452565997839 6040.6156291514635 6519.1833292841911 493.34333871304989
leaf_count=26725 13882 5971 27605 990
internal_value=0.00995432 0.0130691 0.0092964 0.0211882
internal_weight=23594.8 20602.6 14068.6 6533.96
internal_count=75173 48448 41487 6961
is_linear=0
shrinkage=0.01


Tree=45
num_leaves=5
num_cat=0
split_feature=8 4 28 7
split_gain=15355.8 6535.07 4740.46 377.516
threshold=8.5000000000000018 420.50000000000006 22.000000000000004 3487.5000000000005
decision_type=2 2 2 2
left_child=1 2 -1 -3
right_child=-2 3 -4 -5
leaf_value=-0.0123223696320675 -0.011400642229010176 -0.0092302270987500122 0.015332070207426282 0.0076061066035181544
leaf_weight=640.37195067107677 2995.8503240048885 1315.4628713279963 18382.949041828513 146.75994347035885
leaf_count=3416 27111 8178 35805 541
internal_value=0.00974123 0.012834 0.0144 -0.00752953
internal_weight=23481.4 20485.5 19023.3 1462.22
internal_count=75051 47940 39221 8719
is_linear=0
shrinkage=0.01


Tree=46
num_leaves=5
num_cat=0
split_feature=8 4 7 7
split_gain=15108.3 6032.97 4464.21 415.949
threshold=8.5000000000000018 420.50000000000006 5.0000000000000009 3487.5000000000005
decision_type=2 2 2 2
left_child=1 2 -1 -3
right_child=-2 3 -4 -5
leaf_value=0.0076278839269027891 -0.011383090215167598 -0.0085157008302938434 0.017828329114234005 0.0085649626784176838
leaf_weight=6517.1355106979609 2939.343662314117 1311.7018042951822 12593.663472607732 158.55873802304268
leaf_count=18460 26830 8137 20540 574
internal_value=0.00981996 0.012849 0.0143509 -0.00666229
internal_weight=23520.4 20581.1 19110.8 1470.26
internal_count=74541 47711 39000 8711
is_linear=0
shrinkage=0.01


Tree=47
num_leaves=5
num_cat=0
split_feature=30 31 30 31
split_gain=14870.1 12723 3416.03 125.734
threshold=-1.0000000180025095e-35 247.50000000000003 29248.000000000004 28760.000000000004
decision_type=2 2 2 2
left_child=-1 2 -2 -3
right_child=1 3 -4 -5
leaf_value=-0.011440347013175112 0.016025290382534564 -0.011466967078892019 -0.014064596873889636 -0.0059307816402998231
leaf_weight=2908.3582229167223 18139.458436071873 1631.2615125849843 384.22633340954781 564.66075118631124
leaf_count=26629 32258 10839 1966 3041
internal_value=0.00972925 0.0127017 0.0153999 -0.0100513
internal_weight=23628 20719.6 18523.7 2195.92
internal_count=74733 48104 34224 13880
is_linear=0
shrinkage=0.01


Tree=48
num_leaves=5
num_cat=0
split_feature=8 31 0 0
split_gain=14638.2 12343.8 5989.08 99.5143
threshold=8.5000000000000018 247.50000000000003 124.00000000000001 257.50000000000006
decision_type=2 2 2 2
left_child=1 2 -1 -3
right_child=-2 3 -4 -5
leaf_value=0.019535190924893978 -0.011338399979791341 -0.0068790992513354382 0.0078522363287894907 -0.011726790187247487
leaf_weight=11552.109166800976 2941.9491330012679 613.09988099336624 7084.0501697957516 1511.8956338018179
leaf_count=14410 27301 3296 20078 10197
internal_value=0.00953301 0.0124915 0.0150954 -0.0103367
internal_weight=23703.1 20761.2 18636.2 2125
internal_count=75282 47981 34488 13493
is_linear=0
shrinkage=0.01


Tree=49
num_leaves=5
num_cat=0
split_feature=8 31 0 0
split_gain=14363.8 11520.8 5874.34 183.019
threshold=8.5000000000000018 247.50000000000003 33014.000000000007 257.50000000000006
decision_type=2 2 2 2
left_child=1 2 -1 -3
right_child=-2 3 -4 -5
leaf_value=0.016435442317711622 -0.011363056096416933 -0.0051501129109851997 -0.0054396965189027644 -0.011645972056163989
leaf_weight=17114.10587964952 2921.8323644176126 623.28937104344368 1321.2719927281141 1496.4113001450896
leaf_count=28492 27367 3267 5681 10140
internal_value=0.00937883 0.0123281 0.0148669 -0.00974394
internal_weight=23476.9 20555.1 18435.4 2119.7
internal_count=74947 47580 34173 13407
is_linear=0
shrinkage=0.01


Tree=50
num_leaves=5
num_cat=0
split_feature=8 0 3 32
split_gain=14137.9 9122.44 6617.91 3170.62
threshold=8.5000000000000018 33014.000000000007 424.50000000000006 1.0000000180025095e-35
decision_type=2 2 2 2
left_child=1 2 -1 -3
right_child=-2 3 -4 -5
leaf_value=0.01681013140864281 -0.011333219810235195 -0.012938142167212473 -0.00082159683788455282 0.019818896760363962
leaf_weight=16350.216976627707 2877.921639315784 1753.0872688367963 2446.0761767327785 354.2183766067028
leaf_count=25831 27183 9838 11743 595
internal_value=0.00944196 0.0123031 0.0145152 -0.00742046
internal_weight=23781.5 20903.6 18796.3 2107.31
internal_count=75190 48007 37574 10433
is_linear=0
shrinkage=0.01


Tree=51
num_leaves=5
num_cat=0
split_feature=30 31 0 0
split_gain=13535 11871 5745.44 139.589
threshold=-1.0000000180025095e-35 247.50000000000003 257.50000000000006 257.50000000000006
decision_type=2 2 2 2
left_child=-1 2 -2 -3
right_child=1 3 -4 -5
leaf_value=-0.011384616639930557 0.018989498190781672 -0.0059291595533166579 0.0075244504458078587 -0.0115323872442092
leaf_weight=2797.8631607741117 11530.082700207829 638.9335805773735 7048.1213621422648 1562.0833421573043
leaf_count=26485 14279 3385 19883 10805
internal_value=0.00925885 0.0120393 0.0146411 -0.0099138
internal_weight=23577.1 20779.2 18578.2 2201.02
internal_count=74837 48352 34162 14190
is_linear=0
shrinkage=0.01


Tree=52
num_leaves=5
num_cat=0
split_feature=8 31 9 31
split_gain=13294.1 11422.4 3276.95 83.9948
threshold=8.5000000000000018 247.50000000000003 1217391.3041739152 28760.000000000004
decision_type=2 2 2 2
left_child=1 2 -1 -3
right_child=-2 3 -4 -5
leaf_value=0.015125559852277943 -0.011288323560567189 -0.011405096829068742 -0.0070599040499339264 -0.0067938267554042524
leaf_weight=17855.260979667306 2838.8104401305318 1564.3528329133987 690.39012050628662 553.59058655798435
leaf_count=31051 27272 10587 3167 3100
internal_value=0.00899816 0.0117861 0.0142988 -0.0102083
internal_weight=23502.4 20663.6 18545.7 2117.94
internal_count=75177 47905 34218 13687
is_linear=0
shrinkage=0.01


Tree=53
num_leaves=5
num_cat=0
split_feature=8 31 0 22
split_gain=13012.5 11089.1 5468.27 103.061
threshold=8.5000000000000018 247.50000000000003 33014.000000000007 216.50000000000003
decision_type=2 2 2 2
left_child=1 2 -1 -3
right_child=-2 3 -4 -5
leaf_value=0.01568836301490064 -0.011272379769013366 -0.011332597007602734 -0.0053655866764734808 -0.0061955871037713498
leaf_weight=17223.96341471374 2795.3782520741224 1566.8062727078795 1327.5724616199732 539.52568588405848
leaf_count=28435 27089 10552 5683 3099
internal_value=0.00897172 0.011712 0.014181 -0.0100251
internal_weight=23453.2 20657.9 18551.5 2106.33
internal_count=74858 47769 34118 13651
is_linear=0
shrinkage=0.01


Tree=54
num_leaves=5
num_cat=0
split_feature=5 31 0 0
split_gain=12968 10979.8 5402.89 136.786
threshold=9.5000000000000018 247.50000000000003 257.50000000000006 80.500000000000014
decision_type=2 2 2 2
left_child=1 2 -1 -3
right_child=-2 3 -4 -5
leaf_value=0.018307407215591976 -0.011135301953138591 -0.005821131730763051 0.0071952262754434154 -0.011577947124994695
leaf_weight=11625.597181260586 2829.4039536267519 583.01584436744452 7024.8298587426543 1517.2441429048777
leaf_count=14445 27219 3130 19562 10733
internal_value=0.00894319 0.0116818 0.0141231 -0.00998819
internal_weight=23580.1 20750.7 18650.4 2100.26
internal_count=75089 47870 34007 13863
is_linear=0
shrinkage=0.01


Tree=55
num_leaves=5
num_cat=0
split_feature=8 31 30 31
split_gain=12604.9 10544.8 3230.81 130.665
threshold=8.5000000000000018 247.50000000000003 29248.000000000004 28760.000000000004
decision_type=2 2 2 2
left_child=1 2 -1 -3
right_child=-2 3 -4 -5
leaf_value=0.014521451346873158 -0.011242656736945449 -0.011283867528833771 -0.014156831819687766 -0.0055486783555796695
leaf_weight=18375.650066494942 2747.5950174555182 1536.3063780590892 400.30376328527927 550.88520088046789
leaf_count=32287 27084 10634 1996 3060
internal_value=0.00888642 0.0115382 0.0139088 -0.00977831
internal_weight=23610.7 20863.1 18776 2087.19
internal_count=75061 47977 34283 13694
is_linear=0
shrinkage=0.01


Tree=56
num_leaves=5
num_cat=0
split_feature=30 31 30 31
split_gain=12446.3 10464.5 3201.12 109.297
threshold=-1.0000000180025095e-35 247.50000000000003 29248.000000000004 28760.000000000004
decision_type=2 2 2 2
left_child=-1 2 -2 -3
right_child=1 3 -4 -5
leaf_value=-0.01131700357692568 0.014416961913674435 -0.010906327323563536 -0.014078187102900064 -0.0056697473597527494
leaf_weight=2711.9784971177578 18494.301985733211 1580.233457647264 401.71647846698761 550.48100985586643
leaf_count=26777 32392 11084 2019 3084
internal_value=0.00884011 0.0114408 0.0138099 -0.00956142
internal_weight=23738.7 21026.7 18896 2130.71
internal_count=75356 48579 34411 14168
is_linear=0
shrinkage=0.01


Tree=57
num_leaves=5
num_cat=0
split_feature=12 4 13 29
split_gain=12061 5194.36 4001.13 252.471
threshold=10.000000000000002 420.50000000000006 4342.5000000000009 978.00000000000011
decision_type=2 2 2 2
left_child=1 2 -1 -3
right_child=-2 3 -4 -5
leaf_value=0.0094648190577243749 -0.011191625944906716 -0.00849302906691605 0.019165117497350313 0.0039368080723999237
leaf_weight=13007.934703804553 2700.9776382893324 1275.6080617904663 6325.690668925643 185.62944782525301
leaf_count=33021 26767 7749 6415 894
internal_value=0.00868338 0.0112658 0.01264 -0.00690554
internal_weight=23495.8 20794.9 19333.6 1461.24
internal_count=74846 48079 39436 8643
is_linear=0
shrinkage=0.01


Tree=58
num_leaves=5
num_cat=0
split_feature=8 0 3 32
split_gain=12004 8249.04 5678.71 3053.2
threshold=8.5000000000000018 33014.000000000007 424.50000000000006 1.0000000180025095e-35
decision_type=2 2 2 2
left_child=1 2 -1 -3
right_child=-2 3 -4 -5
leaf_value=0.015484158572586799 -0.011215195708531463 -0.012938625199472099 -0.00085579502858844814 0.018734124554664503
leaf_weight=16362.650729134679 2681.5339373722672 1752.6800210848451 2443.2173248752952 367.13607403635979
leaf_count=25726 27117 9886 11576 615
internal_value=0.00869981 0.0112527 0.0133608 -0.00744218
internal_weight=23607.2 20925.7 18805.9 2119.82
internal_count=74920 47803 37302 10501
is_linear=0
shrinkage=0.01


Tree=59
num_leaves=5
num_cat=0
split_feature=30 0 8 4
split_gain=11670.1 8691.32 17287.9 1598.54
threshold=-1.0000000180025095e-35 257.50000000000006 3.0000000000000004 420.50000000000006
decision_type=2 2 2 2
left_child=-1 3 -3 -2
right_child=1 2 -4 -5
leaf_value=-0.011275048564673576 0.017230338002138572 -0.013142215699473561 0.015460705797182277 0.00055922722269968598
leaf_weight=2634.8222057297826 11782.934259288013 3662.8711140602827 4991.0941243246198 606.05881394445896
leaf_count=26693 15249 21174 9449 2664
internal_value=0.00856005 0.0110445 0.00335298 0.0164157
internal_weight=23677.8 21043 8653.97 12389
internal_count=75229 48536 30623 17913
is_linear=0
shrinkage=0.01


Tree=60
num_leaves=5
num_cat=0
split_feature=5 13 3 3
split_gain=11615 4677.65 10098.8 507.589
threshold=9.5000000000000018 4342.5000000000009 2.5000000000000004 742.50000000000011
decision_type=2 2 2 2
left_child=1 2 -1 -3
right_child=-2 3 -4 -5
leaf_value=0.01541600424243586 -0.011061519487071514 0.018841861011854654 -0.0014033985940541593 0.0079207493372575044
leaf_weight=7923.8621677160263 2688.1136667430401 6029.4023648127913 6493.8875238522887 463.57182980328798
leaf_count=14109 27175 5988 26548 1389
internal_value=0.0085006 0.0110162 0.00784012 0.018065
internal_weight=23598.8 20910.7 14417.7 6492.97
internal_count=75209 48034 40657 7377
is_linear=0
shrinkage=0.01


Tree=61
num_leaves=5
num_cat=0
split_feature=8 31 0 0
split_gain=11123 9648.44 5070.49 137.127
threshold=8.5000000000000018 247.50000000000003 121.00000000000001 257.50000000000006
decision_type=2 2 2 2
left_child=1 2 -1 -3
right_child=-2 3 -4 -5
leaf_value=0.017184003714460366 -0.011159119198434261 -0.0058083815022918943 0.006515611824171012 -0.011512060600822509
leaf_weight=11411.781478777528 2603.7395920678973 613.07984094321728 7316.7876968681812 1439.1061379164457
leaf_count=14200 27001 3289 20048 10298
internal_value=0.00831991 0.0107614 0.0130172 -0.00981665
internal_weight=23384.5 20780.8 18728.6 2052.19
internal_count=74836 47835 34248 13587
is_linear=0
shrinkage=0.01


Tree=62
num_leaves=5
num_cat=0
split_feature=30 0 8 28
split_gain=11075 7828.1 17082.7 1982.57
threshold=-1.0000000180025095e-35 257.50000000000006 3.0000000000000004 50.000000000000007
decision_type=2 2 2 2
left_child=-1 3 -3 -2
right_child=1 2 -4 -5
leaf_value=-0.011232008523451536 0.0018630074710274229 -0.013065125679061127 0.015331583660544162 0.017077803897103585
leaf_weight=2576.5952573418617 928.95321474969387 3630.3500178232789 5083.4638159275055 11241.676513403654
leaf_count=26802 2460 21094 9454 15176
internal_value=0.00832366 0.0107372 0.00349965 0.0159176
internal_weight=23461 20884.4 8713.81 12170.6
internal_count=74986 48184 30548 17636
is_linear=0
shrinkage=0.01


Tree=63
num_leaves=5
num_cat=0
split_feature=8 0 8 22
split_gain=10695.4 8018.77 17009 2114.8
threshold=8.5000000000000018 124.00000000000001 3.0000000000000004 2128.0000000000005
decision_type=2 2 2 2
left_child=1 3 -3 -1
right_child=-2 2 -4 -5
leaf_value=0.017007158455183424 -0.011163799040089413 -0.013000897820905124 0.015333577043372987 0.0010257809604593616
leaf_weight=11212.32332649827 2539.6043628528714 3699.650989189744 4954.3165664225817 895.62803600728512
leaf_count=14387 26799 21609 8704 3052
internal_value=0.00820232 0.0105721 0.00321907 0.015826
internal_weight=23301.5 20761.9 8653.97 12108
internal_count=74551 47752 30313 17439
is_linear=0
shrinkage=0.01


Tree=64
num_leaves=5
num_cat=0
split_feature=8 7 3 28
split_gain=10679.8 4978.02 9603.96 113.142
threshold=8.5000000000000018 4342.5000000000009 2.5000000000000004 294.00000000000006
decision_type=2 2 2 2
left_child=1 2 -1 -3
right_child=-2 3 -4 -5
leaf_value=0.014789205932060151 -0.011135571077610287 0.018311983588586329 -0.0015292844756208826 0.013683483860041512
leaf_weight=7855.0491079837084 2547.4864932522178 5810.5653715282679 6665.1993367224932 618.37107119709253
leaf_count=14001 27107 5761 27110 1101
internal_value=0.00819263 0.0105439 0.00729829 0.0178705
internal_weight=23496.7 20949.2 14520.2 6428.94
internal_count=75080 47973 41111 6862
is_linear=0
shrinkage=0.01


Tree=65
num_leaves=5
num_cat=0
split_feature=8 15 3 4
split_gain=10472.5 5080.05 9609.91 70.9213
threshold=8.5000000000000018 1691316.6265000002 2.5000000000000004 389.50000000000006
decision_type=2 2 2 2
left_child=1 2 -1 -3
right_child=-2 3 -4 -5
leaf_value=0.014639051178412011 -0.011106567078232195 0.018153328379311672 -0.0017796951445960463 0.01399945067071086
leaf_weight=7785.5482745170593 2533.1593546569347 5907.8525479733944 6572.8337594717741 486.26721815764904
leaf_count=13849 27185 5862 26935 908
internal_value=0.00808314 0.0104264 0.00712275 0.0178412
internal_weight=23285.7 20752.5 14358.4 6394.12
internal_count=74739 47554 40784 6770
is_linear=0
shrinkage=0.01


Tree=66
num_leaves=5
num_cat=0
split_feature=30 0 2 22
split_gain=10108 7575.98 15860 2222.15
threshold=-1.0000000180025095e-35 397.50000000000006 1.5000000000000002 2128.0000000000005
decision_type=2 2 2 2
left_child=-1 3 -3 -2
right_child=1 2 -4 -5
leaf_value=-0.0111820300995615 0.016454837188959397 0.014398609944466881 -0.01304573882504835 0.00015411161708656383
leaf_weight=2480.4136287868023 11291.672132536769 5077.7655980959535 3595.8940849751234 904.54130508750677
leaf_count=26712 14697 10109 20535 3146
internal_value=0.0078974 0.0101659 0.00301949 0.0152468
internal_weight=23350.3 20869.9 8673.66 12196.2
internal_count=75199 48487 30644 17843
is_linear=0
shrinkage=0.01


Tree=67
num_leaves=5
num_cat=0
split_feature=30 0 2 4
split_gain=9971.42 7609.7 15222.8 1550
threshold=-1.0000000180025095e-35 397.50000000000006 1.5000000000000002 420.50000000000006
decision_type=2 2 2 2
left_child=-1 3 -3 -2
right_child=1 2 -4 -5
leaf_value=-0.011170343620822299 0.015982575645960496 0.014099922549436485 -0.012985459293841746 -0.00042534674661694693
leaf_weight=2449.2424068897963 11731.076808162034 5018.5551031306386 3536.1454312428832 604.1502053514123
leaf_count=26609 15324 10043 20356 2657
internal_value=0.00791362 0.010152 0.00290261 0.0151782
internal_weight=23339.2 20889.9 8554.7 12335.2
internal_count=74989 48380 30399 17981
is_linear=0
shrinkage=0.01


Tree=68
num_leaves=5
num_cat=0
split_feature=12 31 22 31
split_gain=9819.02 9480.67 2811.68 99.3405
threshold=10.000000000000002 247.50000000000003 2.5000000000000004 28760.000000000004
decision_type=2 2 2 2
left_child=1 2 -1 -3
right_child=-2 3 -4 -5
leaf_value=0.016268979656798903 -0.011017291684450673 -0.011246052781918914 0.0085416128151482012 -0.0062654832152534414
leaf_weight=9428.9177661314607 2444.3703096434474 1550.8680797815323 9430.8830774873495 560.74031344801188
leaf_count=13083 26641 11020 21199 3095
internal_value=0.00794496 0.010156 0.0124061 -0.00993178
internal_weight=23415.8 20971.4 18859.8 2111.61
internal_count=75038 48397 34282 14115
is_linear=0
shrinkage=0.01


Tree=69
num_leaves=5
num_cat=0
split_feature=12 7 6 2
split_gain=9581.08 4849.21 8364.37 80.439
threshold=10.000000000000002 4342.5000000000009 12.666666668350002 8.5000000000000018
decision_type=2 2 2 2
left_child=1 2 -1 -3
right_child=-2 3 -4 -5
leaf_value=0.010495474798871607 -0.011035966569857605 0.017680046600244644 -0.0087393463258416543 0.014287964665949362
leaf_weight=11516.514603309333 2430.7287363633513 5481.5327649265528 2811.5470738187432 874.26895645260811
leaf_count=24807 26737 5478 16365 1395
internal_value=0.00773948 0.00994685 0.00672005 0.0172173
internal_weight=23114.6 20683.9 14328.1 6355.8
internal_count=74782 48045 41172 6873
is_linear=0
shrinkage=0.01


Tree=70
num_leaves=5
num_cat=0
split_feature=12 21 3 0
split_gain=9631.02 8694.19 4719.19 4972.27
threshold=4.0000000000000009 59995.218430688408 424.50000000000006 33014.000000000007
decision_type=2 2 2 2
left_child=2 -2 3 -1
right_child=1 -3 -4 -5
leaf_value=0.015003334615918539 -0.011802282412903207 0.017758427970104539 -0.001640773370731476 -0.005089125275810613
leaf_weight=14227.524784088135 3869.9574116393924 1338.006278142333 2457.960112169385 1347.1067260950804
leaf_count=20945 33471 2160 12088 6182
internal_value=0.00777283 -0.00420381 0.0112324 0.0132646
internal_weight=23240.6 5207.96 18032.6 15574.6
internal_count=74846 35631 39215 27127
is_linear=0
shrinkage=0.01


Tree=71
num_leaves=5
num_cat=0
split_feature=5 0 4 32
split_gain=9366.41 7111.88 4952.9 2619.46
threshold=9.5000000000000018 33014.000000000007 420.50000000000006 1.0000000180025095e-35
decision_type=2 2 2 2
left_child=1 2 -1 -3
right_child=-2 3 -4 -5
leaf_value=0.013206230326644013 -0.010886608318083682 -0.012965796385454496 -0.0068345502708423581 0.016636030399940032
leaf_weight=17408.010720744729 2432.7389350757003 1701.6773628368974 1325.9249941408634 361.43370027840137
leaf_count=29710 27005 9650 8034 609
internal_value=0.00767414 0.00984618 0.011787 -0.0077695
internal_weight=23229.8 20797 18733.9 2063.11
internal_count=75008 48003 37744 10259
is_linear=0
shrinkage=0.01


Tree=72
num_leaves=5
num_cat=0
split_feature=8 15 3 3
split_gain=9255.36 4822.16 8887.33 85.7801
threshold=8.5000000000000018 1465670.8385000003 2.5000000000000004 676.50000000000011
decision_type=2 2 2 2
left_child=1 2 -1 -3
right_child=-2 3 -4 -5
leaf_value=0.01370479324292222 -0.011036968277706782 0.017305687824407764 -0.002075342556290982 0.012732927390156575
leaf_weight=7852.1780545860529 2387.5336130708456 5923.9814740419388 6540.1174735054374 474.56546989828348
leaf_count=13909 27224 5968 27013 947
internal_value=0.00760504 0.00974672 0.00653368 0.0169701
internal_weight=23178.4 20790.8 14392.3 6398.55
internal_count=75061 47837 40922 6915
is_linear=0
shrinkage=0.01


Tree=73
num_leaves=5
num_cat=0
split_feature=12 21 3 7
split_gain=9162.82 8382.1 4548.97 4712.55
threshold=4.0000000000000009 56198.508906341311 424.50000000000006 5.0000000000000009
decision_type=2 2 2 2
left_child=2 -2 3 -1
right_child=1 -3 -4 -5
leaf_value=0.0041904866823075319 -0.011870182990419222 0.017369015659892139 -0.0018436688371955615 0.016358188041512848
leaf_weight=4481.4359842389822 3798.7745721936226 1320.2529028579593 2440.7095238938928 11013.004309527576
leaf_count=13035 33596 2162 12153 14072
internal_value=0.0074732 -0.0043252 0.0108413 0.0128401
internal_weight=23054.2 5119.03 17935.1 15494.4
internal_count=75018 35758 39260 27107
is_linear=0
shrinkage=0.01


Tree=74
num_leaves=5
num_cat=0
split_feature=8 7 29 3
split_gain=8949.34 4557.6 8407.88 77.0436
threshold=8.5000000000000018 4342.5000000000009 26.000000000000004 690.50000000000011
decision_type=2 2 2 2
left_child=1 2 -1 -3
right_child=-2 3 -4 -5
leaf_value=0.011439596529142854 -0.010979435068397655 0.017027488367299521 -0.0053431762712391152 0.012649291766079819
leaf_weight=10230.847613625228 2338.0816126316786 5886.2903562560678 4213.1125352159142 467.44530125707388
leaf_count=20023 27118 5990 20833 905
internal_value=0.00756462 0.00965026 0.00654356 0.016709
internal_weight=23135.8 20797.7 14444 6353.74
internal_count=74869 47751 40856 6895
is_linear=0
shrinkage=0.01


Tree=75
num_leaves=5
num_cat=0
split_feature=12 2 2 15
split_gain=8780.44 7427.71 4089.88 3775.07
threshold=4.0000000000000009 3.5000000000000004 9.5000000000000018 4.9714285714500006
decision_type=2 2 2 2
left_child=2 -2 3 -1
right_child=1 -3 -4 -5
leaf_value=0.0034790620519518046 -0.01210085931412699 0.014127055458621689 -0.0050858663102843265 0.014796546851639137
leaf_weight=3854.2927665114403 3564.956413179636 1547.505450733006 1502.920312024653 12568.289438158274
leaf_count=11049 31785 3941 8426 19720
internal_value=0.00739924 -0.00415869 0.0106962 0.0121414
internal_weight=23038 5112.46 17925.5 16422.6
internal_count=74921 35726 39195 30769
is_linear=0
shrinkage=0.01


Tree=76
num_leaves=5
num_cat=0
split_feature=8 31 0 0
split_gain=8660.9 8569.96 4480.51 87.4513
threshold=8.5000000000000018 247.50000000000003 121.00000000000001 257.50000000000006
decision_type=2 2 2 2
left_child=1 2 -1 -3
right_child=-2 3 -4 -5
leaf_value=0.015445354723520171 -0.011026897779959244 -0.0068844225691370997 0.0054251296106423985 -0.011408522191835434
leaf_weight=11466.37989602983 2297.6901437938213 643.72656244039536 7313.9322802871466 1403.7508670464158
leaf_count=14427 27121 3393 19926 10203
internal_value=0.00739283 0.00942578 0.011544 -0.00999508
internal_weight=23125.5 20827.8 18780.3 2047.48
internal_count=75070 47949 34353 13596
is_linear=0
shrinkage=0.01


Tree=77
num_leaves=5
num_cat=0
split_feature=8 31 30 31
split_gain=8443.01 8280.97 2686.49 111.555
threshold=8.5000000000000018 247.50000000000003 29248.000000000004 28760.000000000004
decision_type=2 2 2 2
left_child=1 2 -1 -3
right_child=-2 3 -4 -5
leaf_value=0.011946804595332943 -0.010980205231170726 -0.011287881803012424 -0.014486741491603335 -0.0059240118347480041
leaf_weight=18392.22983084619 2270.9472485557199 1487.0936315879226 391.54304182529449 542.24543132632971
leaf_count=32446 27033 10588 2002 2986
internal_value=0.00732299 0.00932099 0.0113945 -0.00986319
internal_weight=23084.1 20813.1 18783.8 2029.34
internal_count=75055 48022 34448 13574
is_linear=0
shrinkage=0.01


Tree=78
num_leaves=5
num_cat=0
split_feature=30 31 0 31
split_gain=8298.04 8307.94 4647.26 121.101
threshold=-1.0000000180025095e-35 247.50000000000003 257.50000000000006 28760.000000000004
decision_type=2 2 2 2
left_child=-1 2 -2 -3
right_child=1 3 -4 -5
leaf_value=-0.011045672589018238 0.015302678698909996 -0.011258446798788777 0.0050987379408519787 -0.0056669960375681843
leaf_weight=2229.0545477047563 11490.495589211583 1524.1854821443558 7306.004042968154 535.14929753541946
leaf_count=26653 14424 11074 20061 2942
internal_value=0.00728779 0.00924817 0.0113375 -0.00981373
internal_weight=23084.9 20855.8 18796.5 2059.33
internal_count=75154 48501 34485 14016
is_linear=0
shrinkage=0.01


Tree=79
num_leaves=5
num_cat=0
split_feature=12 21 31 0
split_gain=8253.6 7985.25 7219.92 2621.08
threshold=4.0000000000000009 37538.674960000011 247.50000000000003 33014.000000000007
decision_type=2 2 2 2
left_child=2 -2 3 -1
right_child=1 -3 -4 -5
leaf_value=0.013357201259292252 -0.011840963951759161 0.01641326151327524 -0.0095712396498430184 -0.0036685291386893771
leaf_weight=15211.843157730997 3681.8984575346112 1372.10258436203 1655.7860081493855 959.97893305122852
leaf_count=23921 33656 2343 11562 3663
internal_value=0.00711135 -0.00416656 0.0103092 0.0123458
internal_weight=22881.6 5054 17827.6 16171.8
internal_count=75145 35999 39146 27584
is_linear=0
shrinkage=0.01


Tree=80
num_leaves=5
num_cat=0
split_feature=12 21 0 2
split_gain=8116.3 7800.89 4068.14 4523.85
threshold=4.0000000000000009 37538.674960000011 33014.000000000007 9.5000000000000018
decision_type=2 2 2 2
left_child=2 -2 3 -1
right_child=1 -3 -4 -5
leaf_value=0.013337166538476129 -0.011831802539045875 0.016172420816676053 -0.0057928547174403554 -0.0048250288425596595
leaf_weight=14912.121753796935 3631.2604448348284 1368.6923121139407 1451.0607044100761 1508.9569914415479
leaf_count=24029 33444 2330 6855 8449
internal_value=0.00709815 -0.0041622 0.010249 0.0116674
internal_weight=22872.1 4999.95 17872.1 16421.1
internal_count=75107 35774 39333 32478
is_linear=0
shrinkage=0.01


Tree=81
num_leaves=5
num_cat=0
split_feature=8 31 0 0
split_gain=7893.69 7647.64 4382.16 137.038
threshold=8.5000000000000018 247.50000000000003 121.00000000000001 257.50000000000006
decision_type=2 2 2 2
left_child=1 2 -1 -3
right_child=-2 3 -4 -5
leaf_value=0.014886046642485535 -0.01093682298449904 -0.0056229631222324992 0.0049594266162508961 -0.011272086206065488
leaf_weight=11339.809377804399 2197.7791603133082 641.13297392427921 7324.4969586730003 1378.5444402322173
leaf_count=14350 27107 3354 19961 10333
internal_value=0.00707613 0.00899102 0.0109915 -0.00948743
internal_weight=22881.8 20684 18664.3 2019.68
internal_count=75105 47998 34311 13687
is_linear=0
shrinkage=0.01


Tree=82
num_leaves=5
num_cat=0
split_feature=8 31 0 31
split_gain=7671.03 7726.03 4477.91 97.7162
threshold=8.5000000000000018 247.50000000000003 124.00000000000001 28760.000000000004
decision_type=2 2 2 2
left_child=1 2 -1 -3
right_child=-2 3 -4 -5
leaf_value=0.014788331022170993 -0.010925608381920951 -0.011210958335207574 0.0047368517973561336 -0.0061697430345727423
leaf_weight=11332.026155844331 2166.1843410134315 1451.2181165665388 7286.7192947417498 543.57342637330294
leaf_count=14338 26955 10616 20003 3063
internal_value=0.00696988 0.00885136 0.0108555 -0.00984604
internal_weight=22779.7 20613.5 18618.7 1994.79
internal_count=74975 48020 34341 13679
is_linear=0
shrinkage=0.01


Tree=83
num_leaves=5
num_cat=0
split_feature=8 0 2 32
split_gain=7641.49 6412.07 4487.83 2390.68
threshold=8.5000000000000018 33014.000000000007 9.5000000000000018 1.0000000180025095e-35
decision_type=2 2 2 2
left_child=1 2 -1 -3
right_child=-2 3 -4 -5
leaf_value=0.01218725990816014 -0.01089649416658931 -0.012932906493958826 -0.0057037621630493278 0.015499374667203573
leaf_weight=17084.04295527935 2158.1966556161642 1684.0585556477308 1526.0346529185772 357.50743632018566
leaf_count=28886 27090 9689 8674 608
internal_value=0.00700221 0.00887363 0.0107194 -0.00794396
internal_weight=22809.8 20651.6 18610.1 2041.57
internal_count=74947 47857 37560 10297
is_linear=0
shrinkage=0.01


Tree=84
num_leaves=5
num_cat=0
split_feature=8 7 3 3
split_gain=7530.93 4265.26 8166.08 90.8287
threshold=8.5000000000000018 4342.5000000000009 2.5000000000000004 703.50000000000011
decision_type=2 2 2 2
left_child=1 2 -1 -3
right_child=-2 3 -4 -5
leaf_value=0.012691110793636025 -0.010904775106479287 0.016077728712110752 -0.0024092783389585547 0.011295104915006141
leaf_weight=7864.9910975694656 2139.7113462537527 5753.0483954697847 6572.3692619130015 454.00440795719624
leaf_count=13929 27100 6039 27041 931
internal_value=0.00694745 0.00879868 0.00581653 0.0157314
internal_weight=22784.1 20644.4 14437.4 6207.05
internal_count=75040 47940 40970 6970
is_linear=0
shrinkage=0.01


Tree=85
num_leaves=5
num_cat=0
split_feature=5 0 2 11
split_gain=7327.69 6154.35 14031.5 990.676
threshold=9.5000000000000018 397.50000000000006 1.5000000000000002 0.10775882600000002
decision_type=2 2 2 2
left_child=1 3 -3 -1
right_child=-2 2 -4 -5
leaf_value=0.015465078817914634 -0.010712415996597344 0.012856550050622207 -0.013137946386747409 0.0094262378941468872
leaf_weight=7806.1155289709568 2138.7489408180118 5098.5938222631812 3501.7537520229816 4194.1213020980358
leaf_count=9097 26788 9991 20230 8819
internal_value=0.00689982 0.00872923 0.00227106 0.0133563
internal_weight=22739.3 20600.6 8600.35 12000.2
internal_count=74925 48137 30221 17916
is_linear=0
shrinkage=0.01


Tree=86
num_leaves=5
num_cat=0
split_feature=8 7 6 28
split_gain=7289.62 4238.58 6803.19 99.1901
threshold=8.5000000000000018 4342.5000000000009 12.666666668350002 294.00000000000006
decision_type=2 2 2 2
left_child=1 2 -1 -3
right_child=-2 3 -4 -5
leaf_value=0.0089933891059869285 -0.010921760572646898 0.015992139380150313 -0.0083629378955352683 0.011668182873790425
leaf_weight=11564.750014334917 2115.4906679838896 5479.1659033894539 2804.9506499692798 622.8595744073391
leaf_count=24923 27290 5745 16015 1148
internal_value=0.00674477 0.00857131 0.00560441 0.0155544
internal_weight=22587.2 20471.7 14369.7 6102.03
internal_count=75121 47831 40938 6893
is_linear=0
shrinkage=0.01


Tree=87
num_leaves=5
num_cat=0
split_feature=7 4 32 26
split_gain=6561.38 12225.4 3128.05 574.821
threshold=3487.5000000000005 26.500000000000004 1.0000000180025095e-35 68933354.000000015
decision_type=2 2 2 2
left_child=1 2 -1 -3
right_child=-2 3 -4 -5
leaf_value=0.0042284368979494252 0.015400117130261468 -0.010409605202505109 0.014717686856332155 0.00845684042558369
leaf_weight=6208.6879115402699 6259.6568674370646 4779.6055267602205 5251.0714692622423 165.83781996369362
leaf_count=17244 7274 42666 7594 778
internal_value=0.00669011 0.00336533 0.00903654 -0.00977334
internal_weight=22664.9 16405.2 11459.8 4945.44
internal_count=75556 68282 24838 43444
is_linear=0
shrinkage=0.01


Tree=88
num_leaves=5
num_cat=0
split_feature=30 15 3 3
split_gain=6909.08 4325.33 8035.86 75.2336
threshold=-1.0000000180025095e-35 1465670.8385000003 2.5000000000000004 690.50000000000011
decision_type=2 2 2 2
left_child=-1 2 -2 -3
right_child=1 3 -4 -5
leaf_value=-0.010953839617455677 0.012202391764204448 0.015783675514555971 -0.0028921978347471091 0.011385427798966332
leaf_weight=2031.8156636580825 7788.5511429905891 5606.5248237550259 6442.7989396601915 449.79123030602932
leaf_count=26539 13858 5934 27310 945
internal_value=0.00662114 0.00838223 0.00536836 0.0154606
internal_weight=22319.5 20287.7 14231.4 6056.32
internal_count=74586 48047 41168 6879
is_linear=0
shrinkage=0.01


Tree=89
num_leaves=5
num_cat=0
split_feature=8 31 15 31
split_gain=6965.06 7240.55 2475.82 109.84
threshold=8.5000000000000018 247.50000000000003 1465670.8385000003 28760.000000000004
decision_type=2 2 2 2
left_child=1 2 -1 -3
right_child=-2 3 -4 -5
leaf_value=0.0078313248803668495 -0.010872089770160518 -0.011137779023407957 0.015645546916978243 -0.0058034118504846762
leaf_weight=12467.464638829231 2057.1478823497891 1446.6581430360675 6018.8229321837425 544.31437657028437
leaf_count=27879 27259 10655 6491 2984
internal_value=0.00666255 0.00842501 0.0103768 -0.00968808
internal_weight=22534.4 20477.3 18486.3 1990.97
internal_count=75268 48009 34370 13639
is_linear=0
shrinkage=0.01


Tree=90
num_leaves=5
num_cat=0
split_feature=12 0 2 28
split_gain=6747.41 6282.34 13221.7 1829.22
threshold=10.000000000000002 257.50000000000006 1.5000000000000002 50.000000000000007
decision_type=2 2 2 2
left_child=1 3 -3 -1
right_child=-2 2 -4 -5
leaf_value=6.8847886130205048e-05 -0.010746109376595649 0.012066482097313008 -0.013192180717229524 0.014196073358812211
leaf_weight=1002.485012024641 2046.4109247177839 5084.3150267079473 3496.6345497891307 10871.359002575278
leaf_count=2594 26964 10183 20399 15267
internal_value=0.00656081 0.00829322 0.00177238 0.0130043
internal_weight=22501.2 20454.8 8580.95 11873.8
internal_count=75407 48443 30582 17861
is_linear=0
shrinkage=0.01


Tree=91
num_leaves=5
num_cat=0
split_feature=8 31 0 0
split_gain=6632.15 7015.89 4151.52 97.7398
threshold=8.5000000000000018 247.50000000000003 121.00000000000001 257.50000000000006
decision_type=2 2 2 2
left_child=1 2 -1 -3
right_child=-2 3 -4 -5
leaf_value=0.014025370851975829 -0.010813418688051628 -0.0063671091088964848 0.0042574873799391113 -0.011202855991107192
leaf_weight=11079.044577881694 2004.3500078767538 632.53661379218102 7172.5579684525728 1339.5193488821387
leaf_count=14304 27008 3336 19747 10243
internal_value=0.00653142 0.00825139 0.0101878 -0.00966087
internal_weight=22228 20223.7 18251.6 1972.06
internal_count=74638 47630 34051 13579
is_linear=0
shrinkage=0.01


Tree=92
num_leaves=5
num_cat=0
split_feature=12 31 20 0
split_gain=6641.96 6516.22 6135.24 2204.5
threshold=4.0000000000000009 247.50000000000003 148417.19446666652 33014.000000000007
decision_type=2 2 2 2
left_child=1 3 -2 -1
right_child=2 -3 -4 -5
leaf_value=0.012185879176688324 -0.011517192059903146 -0.0097988255607949441 0.013015383468742822 -0.0033931117426246626
leaf_weight=14899.621153563261 3325.786659874022 1621.999780729413 1468.552940800786 965.80867651104927
leaf_count=24007 32373 11719 3511 3634
internal_value=0.00642581 0.00928461 -0.00399939 0.0112367
internal_weight=22281.8 17487.4 4794.34 15865.4
internal_count=75244 39360 35884 27641
is_linear=0
shrinkage=0.01


Tree=93
num_leaves=5
num_cat=0
split_feature=12 21 31 2
split_gain=6634.38 7146.11 6328.25 2157.88
threshold=4.0000000000000009 56198.508906341311 247.50000000000003 10.500000000000002
decision_type=2 2 2 2
left_child=2 -2 3 -1
right_child=1 -3 -4 -5
leaf_value=0.01201606099599681 -0.011709384451955171 0.015646358080875732 -0.0096327789167493585 -0.0050421774129477273
leaf_weight=15146.265274658799 3414.697218157351 1324.3394457101822 1606.946543045342 778.38225276768208
leaf_count=24214 33601 2157 11652 3453
internal_value=0.00643477 -0.00406093 0.00927254 0.0111814
internal_weight=22270.6 4739.04 17531.6 15924.6
internal_count=75077 35758 39319 27667
is_linear=0
shrinkage=0.01


Tree=94
num_leaves=5
num_cat=0
split_feature=8 0 8 22
split_gain=6342.98 5924.2 13633.8 1933.72
threshold=8.5000000000000018 121.00000000000001 3.0000000000000004 2128.0000000000005
decision_type=2 2 2 2
left_child=1 3 -3 -1
right_child=-2 2 -4 -5
leaf_value=0.013834160977275956 -0.010806283632218425 -0.01312910418964669 0.01248009917847874 -0.0012949927947270166
leaf_weight=10711.201447635889 1967.3450003191829 3597.6842027157545 4921.0692101567984 915.6719089075923
leaf_count=14508 27227 21525 8652 3093
internal_value=0.00632619 0.00800023 0.00166324 0.0126418
internal_weight=22113 20145.6 8518.75 11626.9
internal_count=75005 47778 30177 17601
is_linear=0
shrinkage=0.01


Tree=95
num_leaves=5
num_cat=0
split_feature=12 21 2 7
split_gain=6365.38 7092.26 3280.94 3489.98
threshold=4.0000000000000009 25614.893505000004 9.5000000000000018 5.0000000000000009
decision_type=2 2 2 2
left_child=2 -2 3 -1
right_child=1 -3 -4 -5
leaf_value=0.0029234145539790805 -0.011929439448201452 0.014935540904312388 -0.0052729302587205904 0.013358787370462213
leaf_weight=4454.7794083729386 3319.0557429045439 1394.6391009390354 1449.0884471908212 11451.575966566801
leaf_count=13113 33364 2560 8504 17606
internal_value=0.00632577 -0.0039773 0.0091247 0.0104372
internal_weight=22069.1 4713.69 17355.4 15906.4
internal_count=75147 35924 39223 30719
is_linear=0
shrinkage=0.01


Tree=96
num_leaves=5
num_cat=0
split_feature=30 31 0 0
split_gain=6121.49 6713.55 4141.13 109.1
threshold=-1.0000000180025095e-35 247.50000000000003 257.50000000000006 257.50000000000006
decision_type=2 2 2 2
left_child=-1 2 -2 -3
right_child=1 3 -4 -5
leaf_value=-0.010884133460521092 0.013628323761168157 -0.0061653041535365298 0.0038743152872758569 -0.011279342262484605
leaf_weight=1894.3650012090802 11090.445414572954 628.82677716016769 7171.3567429259419 1335.4816133603454
leaf_count=26576 14466 3323 19996 10664
internal_value=0.0062988 0.00790909 0.00979892 -0.00965126
internal_weight=22120.5 20226.1 18261.8 1964.31
internal_count=75025 48449 34462 13987
is_linear=0
shrinkage=0.01


Tree=97
num_leaves=5
num_cat=0
split_feature=8 31 0 31
split_gain=6095.58 6600.3 3829.23 98.6763
threshold=8.5000000000000018 247.50000000000003 33014.000000000007 16388.000000000004
decision_type=2 2 2 2
left_child=1 2 -1 -3
right_child=-2 3 -4 -5
leaf_value=0.011054387269995747 -0.010800922634225028 -0.011290703150510291 -0.0065463286417378856 -0.0063105538885419076
leaf_weight=16894.79967468977 1904.0027317404747 1319.3828394934535 1332.2870723605156 592.7119607552886
leaf_count=28596 27063 10200 5669 3407
internal_value=0.00629527 0.00791253 0.00976705 -0.00975629
internal_weight=22043.2 20139.2 18227.1 1912.09
internal_count=74935 47872 34265 13607
is_linear=0
shrinkage=0.01


Tree=98
num_leaves=5
num_cat=0
split_feature=12 9 4 15
split_gain=6087.84 5476.72 3946.86 3528.44
threshold=4.0000000000000009 32.007417280000006 420.50000000000006 4.9714285714500006
decision_type=2 2 2 2
left_child=2 -2 3 -1
right_child=1 -3 -4 -5
leaf_value=0.0018139001683939347 0.012377812216445886 -0.011346942923926493 -0.0075228464915218698 0.012884710061386855
leaf_weight=3796.0081472918391 1395.3723255470395 3207.0005020573735 1361.4332298263907 11948.103239014745
leaf_count=11077 3017 32710 8562 19399
internal_value=0.00605658 -0.00415064 0.00880357 0.0102164
internal_weight=21707.9 4602.37 17105.5 15744.1
internal_count=74765 35727 39038 30476
is_linear=0
shrinkage=0.01


Tree=99
num_leaves=5
num_cat=0
split_feature=30 31 0 0
split_gain=5892.43 6578.78 3889.24 103.705
threshold=-1.0000000180025095e-35 247.50000000000003 257.50000000000006 257.50000000000006
decision_type=2 2 2 2
left_child=-1 2 -2 -3
right_child=1 3 -4 -5
leaf_value=-0.010863958376485898 0.013363710196591976 -0.0063378135960801421 0.0038839486427329766 -0.011360847137816654
leaf_weight=1865.3264037892222 10883.437445193529 619.61610343307257 7192.2125074565411 1322.9302605092525
leaf_count=26851 14338 3329 19886 10723
internal_value=0.00612874 0.00771311 0.00959274 -0.00976788
internal_weight=21883.5 20018.2 18075.6 1942.55
internal_count=75127 48276 34224 14052
is_linear=0
shrinkage=0.01


end of trees

feature_importances:
Destination_Port=68
Bwd_Packet_Length_Min=67
Init_Win_bytes_backward=60
Total_Length_of_Fwd_Packets=26
Fwd_Packet_Length_Max=23
Packet_Length_Variance=19
Init_Win_bytes_forward=18
Bwd_Packet_Length_Max=15
Total_Fwd_Packets=13
Min_Packet_Length=13
Fwd_Packet_Length_Min=12
Fwd_IAT_Min=11
Bwd_Header_Length=8
PSH_Flag_Count=8
Fwd_Header_Length=7
Flow_Bytes/s=6
Fwd_IAT_Std=6
Fwd_Packet_Length_Mean=4
Max_Packet_Length=4
Bwd_Packets/s=3
Fwd_IAT_Mean=2
Bwd_IAT_Std=2
Packet_Length_Mean=1
Flow_IAT_Mean=1
Flow_IAT_Max=1
Bwd_IAT_Max=1
ACK_Flag_Count=1

parameters:
[boosting: gbdt]
[objective: binary]
[metric: binary_logloss]
[tree_learner: serial]
[device_type: cpu]
[data_sample_strategy: bagging]
[data: ]
[valid: ]
[num_iterations: 100]
[learning_rate: 0.01]
[num_leaves: 5]
[num_threads: 0]
[seed: 0]
[deterministic: 0]
[force_col_wise: 0]
[force_row_wise: 0]
[histogram_pool_size: -1]
[max_depth: 3]
[min_data_in_leaf: 500]
[min_sum_hessian_in_leaf: 100]
[bagging_fraction: 0.5]
[pos_bagging_fraction: 1]
[neg_bagging_fraction: 1]
[bagging_freq: 1]
[bagging_seed: 3]
[bagging_by_query: 0]
[feature_fraction: 0.5]
[feature_fraction_bynode: 1]
[feature_fraction_seed: 2]
[extra_trees: 0]
[extra_seed: 6]
[early_stopping_round: 0]
[early_stopping_min_delta: 0]
[first_metric_only: 0]
[max_delta_step: 0]
[lambda_l1: 1]
[lambda_l2: 1]
[linear_lambda: 0]
[min_gain_to_split: 1]
[drop_rate: 0.1]
[max_drop: 50]
[skip_drop: 0.5]
[xgboost_dart_mode: 0]
[uniform_drop: 0]
[drop_seed: 4]
[top_rate: 0.2]
[other_rate: 0.1]
[min_data_per_group: 100]
[max_cat_threshold: 32]
[cat_l2: 10]
[cat_smooth: 10]
[max_cat_to_onehot: 4]
[top_k: 20]
[monotone_constraints: ]
[monotone_constraints_method: basic]
[monotone_penalty: 0]
[feature_contri: ]
[forcedsplits_filename: ]
[refit_decay_rate: 0.9]
[cegb_tradeoff: 1]
[cegb_penalty_split: 0]
[cegb_penalty_feature_lazy: ]
[cegb_penalty_feature_coupled: ]
[path_smooth: 0]
[interaction_constraints: ]
[verbosity: -1]
[saved_feature_importance_type: 0]
[use_quantized_grad: 0]
[num_grad_quant_bins: 4]
[quant_train_renew_leaf: 0]
[stochastic_rounding: 1]
[linear_tree: 0]
[max_bin: 255]
[max_bin_by_feature: ]
[min_data_in_bin: 3]
[bin_construct_sample_cnt: 200000]
[data_random_seed: 1]
[is_enable_sparse: 1]
[enable_bundle: 1]
[use_missing: 1]
[zero_as_missing: 0]
[feature_pre_filter: 1]
[pre_partition: 0]
[two_round: 0]
[header: 0]
[label_column: ]
[weight_column: ]
[group_column: ]
[ignore_column: ]
[categorical_feature: ]
[forcedbins_filename: ]
[precise_float_parser: 0]
[parser_config_file: ]
[objective_seed: 5]
[num_class: 1]
[is_unbalance: 1]
[scale_pos_weight: 1]
[sigmoid: 1]
[boost_from_average: 1]
[reg_sqrt: 0]
[alpha: 0.9]
[fair_c: 1]
[poisson_max_delta_step: 0.7]
[tweedie_variance_power: 1.5]
[lambdarank_truncation_level: 30]
[lambdarank_norm: 1]
[label_gain: ]
[lambdarank_position_bias_regularization: 0]
[eval_at: ]
[multi_error_top_k: 1]
[auc_mu_weights: ]
[num_machines: 1]
[local_listen_port: 12400]
[time_out: 120]
[machine_list_filename: ]
[machines: ]
[gpu_platform_id: -1]
[gpu_device_id: -1]
[gpu_use_dp: 0]
[num_gpu: 1]

end of parameters

pandas_categorical:[]
