tree
version=v4
num_class=1
num_tree_per_iteration=1
label_index=0
max_feature_idx=34
objective=binary sigmoid:1
feature_names=Destination_Port Flow_Duration Total_Fwd_Packets Total_Length_of_Fwd_Packets Fwd_Packet_Length_Max Fwd_Packet_Length_Min Fwd_Packet_Length_Mean Bwd_Packet_Length_Max Bwd_Packet_Length_Min Flow_Bytes/s Flow_Packets/s Bwd_Packets/s Min_Packet_Length Max_Packet_Length Packet_Length_Mean Packet_Length_Variance Flow_IAT_Mean Flow_IAT_Std Flow_IAT_Max Flow_IAT_Min Fwd_IAT_Mean Fwd_IAT_Std Fwd_IAT_Min Bwd_IAT_Total Bwd_IAT_Mean Bwd_IAT_Std Bwd_IAT_Max Bwd_IAT_Min Fwd_Header_Length Bwd_Header_Length Init_Win_bytes_forward Init_Win_bytes_backward PSH_Flag_Count FIN_Flag_Count ACK_Flag_Count
feature_infos=[0:65530] [-1:119999976] [1:200332] [0:12900000] [0:24820] [0:2065] [0:3669.6153850000001] [0:13032] [0:2042] [-12000000:inf] [-2000000:inf] [0:2000000] [0:1359] [0:24820] [0:2711.4285709999999] [0:19200000] [-1:119000000] [0:84800000] [-1:120000000] [-13:119000000] [0:120000000] [0:82800000] [-1:120000000] [0:120000000] [0:120000000] [0:77800000] [0:120000000] [0:120000000] [-1073740992:4226044] [-1073740992:5412040] [-1:65535] [-1:65535] [0:1] [0:1] [0:1]
tree_sizes=670 688 685 687 682 689 684 681 683 682 689 685 689 684 687 686 689 687 686 688 686 689 691 691 684 692 687 689 689 686 689 689 690 683 687 694 680 684 686 686 686 686 690 689 692 686 685 694 690 688 691 696 690 687 692 693 692 691 683 681 686 690 686 687 690 690 695 687 693 691 690 695 689 695 690 686 689 689 699 688 692 692 694 691 688 685 688 696 694 694 692 694 696 689 694 691 700 694 696 698

Tree=0
num_leaves=5
num_cat=0
split_feature=8 15 29 6
split_gain=109684 52607.4 59424.8 3109.47
threshold=8.5000000000000018 1647731.0764666854 26.000000000000004 140.02941176470003
decision_type=2 2 2 2
left_child=1 2 -1 -3
right_child=-2 3 -4 -5
leaf_value=-1.3744185766031702 -1.4191128692752675 -1.3559366938864703 -1.409488875373252 -1.3882773714796566
leaf_weight=13711.224442720413 8521.1370716691017 8042.7337661683559 7459.2262679934502 311.25889593362808
leaf_count=40455 53901 12504 41763 1242
internal_value=-1.38751 -1.37839 -1.38678 -1.35714
internal_weight=38045.6 29524.4 21170.5 8353.99
internal_count=149865 95964 82218 13746
is_linear=0
shrinkage=1


Tree=1
num_leaves=5
num_cat=0
split_feature=5 0 20 4
split_gain=103510 63156.2 67973.7 15621.1
threshold=9.5000000000000018 435.00000000000006 1.0000000180025095e-35 420.50000000000006
decision_type=2 2 2 2
left_child=1 3 -3 -1
right_child=-2 2 -4 -5
leaf_value=0.043207612860120669 -0.012210316143896329 0.032726451744006776 -0.011920021543998767 0.003511720825543946
leaf_weight=15406.275250643492 8411.4448754787445 7197.1075686812401 6478.8073340058327 1060.2965580821037
leaf_count=30446 53463 20231 40446 5423
internal_value=0.0188056 0.0274612 0.0115756 0.0406525
internal_weight=38553.9 30142.5 13675.9 16466.6
internal_count=150009 96546 60677 35869
is_linear=0
shrinkage=0.01


Tree=2
num_leaves=5
num_cat=0
split_feature=8 3 28 17
split_gain=101430 36831.7 22083.6 13428.3
threshold=8.5000000000000018 428.50000000000006 22.000000000000004 20694556.986952953
decision_type=2 2 2 2
left_child=1 2 -1 -3
right_child=-2 3 -4 -5
leaf_value=-0.01150565975188758 -0.012368231021418923 -0.0058426063635272927 0.033484215578418727 0.04153331206534977
leaf_weight=1140.4806401878595 8417.7565625756979 4035.7717906236649 24781.972429767251 701.36921861767769
leaf_count=6875 54052 23581 64585 1373
internal_value=0.0183771 0.0268188 0.0315041 0.00117693
internal_weight=39077.4 30659.6 25922.5 4737.14
internal_count=150466 96414 71460 24954
is_linear=0
shrinkage=0.01


Tree=3
num_leaves=5
num_cat=0
split_feature=8 15 29 6
split_gain=96776.4 44453.8 52489.9 2342.55
threshold=8.5000000000000018 1647731.0764666854 22.000000000000004 139.01851850000003
decision_type=2 2 2 2
left_child=1 2 -1 -3
right_child=-2 3 -4 -5
leaf_value=0.029674363716859786 -0.012348309563658087 0.045885599942235143 -0.0027315608927397069 0.018938677511487149
leaf_weight=14522.694313749671 8264.1841026693583 8666.7183631956577 7620.1336839050055 338.40347541868687
leaf_count=40654 53478 12511 41991 1269
internal_value=0.0180715 0.0261429 0.0185223 0.0448763
internal_weight=39412.1 31147.9 22142.8 9005.12
internal_count=149903 96425 82645 13780
is_linear=0
shrinkage=0.01


Tree=4
num_leaves=5
num_cat=0
split_feature=5 0 3 22
split_gain=92145.5 56837.3 63314.4 12696.6
threshold=14.500000000000002 435.00000000000006 2.5000000000000004 2121.0000000000005
decision_type=2 2 2 2
left_child=1 3 -3 -1
right_child=-2 2 -4 -5
leaf_value=0.039946692595969266 -0.012117526887956283 0.030542217939430263 -0.01206635054823179 0.0081533134852904681
leaf_weight=16094.693181559443 8249.6196287423372 7379.8272975683212 6610.1129457503557 1363.8950985372066
leaf_count=29549 53588 19628 40951 6077
internal_value=0.017627 0.02543 0.0104099 0.0374641
internal_weight=39698.1 31448.5 13989.9 17458.6
internal_count=149793 96205 60579 35626
is_linear=0
shrinkage=0.01


Tree=5
num_leaves=5
num_cat=0
split_feature=5 31 13 31
split_gain=89056.8 67943.8 18366.6 388.393
threshold=9.5000000000000018 247.50000000000003 4306.5000000000009 28942.500000000004
decision_type=2 2 2 2
left_child=1 2 -1 -3
right_child=-2 3 -4 -5
leaf_value=0.024957897293915347 -0.012098140673882703 -0.011863571656602241 0.042235331421179467 -0.0051058006257673916
leaf_weight=17980.859386309981 8197.565271422267 3581.7691548317671 9364.2159858494997 1125.9130503982306
leaf_count=54700 53657 22153 13549 6207
internal_value=0.0173129 0.0248353 0.0308762 -0.0102509
internal_weight=40250.3 32052.8 27345.1 4707.68
internal_count=150266 96609 68249 28360
is_linear=0
shrinkage=0.01


Tree=6
num_leaves=5
num_cat=0
split_feature=5 31 0 0
split_gain=85478.1 65229.9 29243.3 365.842
threshold=9.5000000000000018 247.50000000000003 435.00000000000006 257.50000000000006
decision_type=2 2 2 2
left_child=1 2 -1 -3
right_child=-2 3 -4 -5
leaf_value=0.038225109540573399 -0.012072564130560575 -0.0056339987291968083 0.017178712372393976 -0.012107343990132578
leaf_weight=17003.721319302917 8088.6177811473608 1180.756743773818 10799.801961883903 3455.2443549335003
leaf_count=29152 53349 6603 39109 21587
internal_value=0.0170091 0.0242609 0.0300513 -0.0104624
internal_weight=40528.1 32439.5 27803.5 4636
internal_count=149800 96451 68261 28190
is_linear=0
shrinkage=0.01


Tree=7
num_leaves=5
num_cat=0
split_feature=8 15 4 4
split_gain=83997.9 35167.3 46152.5 1593.89
threshold=8.5000000000000018 1647731.0764666854 30.500000000000004 411.50000000000006
decision_type=2 2 2 2
left_child=1 2 -1 -3
right_child=-2 3 -4 -5
leaf_value=0.02513124261686701 -0.0122179667552635 0.040447723091080523 -0.0076681647168200485 0.020673081846000238
leaf_weight=17317.344550892711 8075.3298638910055 9422.2461201697588 5701.6475481390953 431.62709559500217
leaf_count=49114 53827 12424 33312 1390
internal_value=0.0166772 0.0237759 0.0170066 0.0395847
internal_weight=40948.2 32872.9 23019 9853.87
internal_count=150067 96240 82426 13814
is_linear=0
shrinkage=0.01


Tree=8
num_leaves=5
num_cat=0
split_feature=8 3 14 10
split_gain=80968.5 29025.1 19461 11755.1
threshold=8.5000000000000018 428.50000000000006 648.9563491841501 0.19843398700000001
decision_type=2 2 2 2
left_child=1 2 -1 -3
right_child=-2 3 -4 -5
leaf_value=0.021426279462948849 -0.012175260883768501 0.03434875748900014 0.039174264533589673 -0.0067515056935191966
leaf_weight=19495.571786358953 8009.6672565490007 843.3716791421175 9051.9959746599197 3956.0372306704521
leaf_count=59900 53793 1567 11757 23273
internal_value=0.0163728 0.0232302 0.0270554 0.000474368
internal_weight=41356.6 33347 28547.6 4799.41
internal_count=150290 96497 71657 24840
is_linear=0
shrinkage=0.01


Tree=9
num_leaves=5
num_cat=0
split_feature=8 7 4 2
split_gain=78162.2 31004.9 43254.7 1572.33
threshold=8.5000000000000018 4292.5000000000009 30.500000000000004 9.5000000000000018
decision_type=2 2 2 2
left_child=1 2 -1 -3
right_child=-2 3 -4 -5
leaf_value=0.024075324849666992 -0.012173366763106099 0.038195361658137549 -0.0076247423726725156 0.01980200469328388
leaf_weight=17746.308352693915 7936.9405550956726 9669.0809333622456 5681.5584814250469 494.19395412504673
leaf_count=49045 53739 12267 33200 1557
internal_value=0.0160483 0.022717 0.0163872 0.037304
internal_weight=41528.1 33591.1 23427.9 10163.3
internal_count=149808 96069 82245 13824
is_linear=0
shrinkage=0.01


Tree=10
num_leaves=5
num_cat=0
split_feature=8 13 29 3
split_gain=75887.7 26525.9 41980.1 5320.29
threshold=8.5000000000000018 4306.5000000000009 26.000000000000004 1545.5000000000002
decision_type=2 2 2 2
left_child=1 2 -1 -3
right_child=-2 3 -4 -5
leaf_value=0.025572106953639685 -0.012141548020411215 0.036739889303984224 -0.0029827894465474735 -0.0024733683981859149
leaf_weight=15893.410084083676 7911.0858267247677 10194.587609410286 7614.0805484950542 357.52877177298069
leaf_count=40593 53981 13134 40680 1897
internal_value=0.0157571 0.0222376 0.016323 0.0354102
internal_weight=41970.7 34059.6 23507.5 10552.1
internal_count=150285 96304 81273 15031
is_linear=0
shrinkage=0.01


Tree=11
num_leaves=5
num_cat=0
split_feature=8 0 8 22
split_gain=72471.9 41984.9 64571.9 10084
threshold=8.5000000000000018 124.00000000000001 3.0000000000000004 2121.0000000000005
decision_type=2 2 2 2
left_child=1 3 -3 -1
right_child=-2 2 -4 -5
leaf_value=0.033489696967920847 -0.012114975580971948 -0.012375471707445011 0.02911375822848768 0.0059877401388404852
leaf_weight=17761.491254776716 7817.5643031746149 7244.6459058523178 7776.8708878457546 1442.9177498519421
leaf_count=28834 53763 43459 17689 6156
internal_value=0.0153542 0.0216289 0.00910398 0.0314243
internal_weight=42043.5 34225.9 15021.5 19204.4
internal_count=149901 96138 61148 34990
is_linear=0
shrinkage=0.01


Tree=12
num_leaves=5
num_cat=0
split_feature=5 31 0 0
split_gain=69833.3 55284.6 22605.8 320.847
threshold=9.5000000000000018 247.50000000000003 435.00000000000006 257.50000000000006
decision_type=2 2 2 2
left_child=1 2 -1 -3
right_child=-2 3 -4 -5
leaf_value=0.033035166468890563 -0.011907776148871192 -0.0061184984082660156 0.015148616991444524 -0.012102600768844575
leaf_weight=18749.479409605265 7735.5260267406702 1221.0503656119108 11347.598598256707 3487.0436550080776
leaf_count=29247 53391 6689 39111 21590
internal_value=0.0152675 0.0213077 0.0262924 -0.0105544
internal_weight=42540.7 34805.2 30097.1 4708.09
internal_count=150028 96637 68358 28279
is_linear=0
shrinkage=0.01


Tree=13
num_leaves=5
num_cat=0
split_feature=7 6 28 25
split_gain=50908 79991.4 14622.9 1667.56
threshold=4292.5000000000009 13.784090910000002 22.000000000000004 26250000.000000004
decision_type=2 2 2 2
left_child=1 2 -1 -3
right_child=-2 3 -4 -5
leaf_value=-0.011675376703837233 0.033671881892610896 -0.010803787855796051 0.024150341167464711 0.014856349797140707
leaf_weight=1217.5709991753101 10773.491748452187 12959.871485516429 17522.694532096386 257.14716266095638
leaf_count=6849 13812 85183 43477 976
internal_value=0.0148738 0.00853533 0.0218217 -0.0103027
internal_weight=42730.8 31957.3 18740.3 13217
internal_count=150297 136485 50326 86159
is_linear=0
shrinkage=0.01


Tree=14
num_leaves=5
num_cat=0
split_feature=15 4 31 25
split_gain=48332.7 77972.4 28024.2 2136.7
threshold=1647731.0764666854 26.500000000000004 235.50000000000003 26250000.000000004
decision_type=2 2 2 2
left_child=1 2 -1 -3
right_child=-2 3 -4 -5
leaf_value=0.026572430635982042 0.032980056383659744 -0.01052888579645739 -0.0081344035311573144 0.023628632067131485
leaf_weight=16235.41875743866 10883.486320778728 13025.166740342975 2714.6613193303347 184.6580278724432
leaf_count=35424 13639 85539 14705 566
internal_value=0.0147652 0.00859978 0.0215999 -0.0100489
internal_weight=43043.4 32159.9 18950.1 13209.8
internal_count=149873 136234 50129 86105
is_linear=0
shrinkage=0.01


Tree=15
num_leaves=5
num_cat=0
split_feature=8 31 0 0
split_gain=65179.4 48100.7 20011.9 286.292
threshold=8.5000000000000018 247.50000000000003 33125.000000000007 257.50000000000006
decision_type=2 2 2 2
left_child=1 2 -1 -3
right_child=-2 3 -4 -5
leaf_value=0.02693943026843253 -0.012027611137871168 -0.0061654083775219415 -0.0028561615957854885 -0.011906368164050054
leaf_weight=28710.597557112575 7621.970258295536 1195.4221516996622 2445.3565877825022 3300.9407376945019
leaf_count=57245 53950 6591 11619 20515
internal_value=0.0145134 0.0201879 0.0246005 -0.010384
internal_weight=43274.3 35652.3 31156 4496.36
internal_count=149920 95970 68864 27106
is_linear=0
shrinkage=0.01


Tree=16
num_leaves=5
num_cat=0
split_feature=8 31 15 31
split_gain=63243.8 46421.4 11052.2 298.903
threshold=8.5000000000000018 247.50000000000003 1427036.2380000001 28942.500000000004
decision_type=2 2 2 2
left_child=1 2 -1 -3
right_child=-2 3 -4 -5
leaf_value=0.019747306831873691 -0.011997570955387624 -0.011736179065330983 0.032124044164829134 -0.0057597572701128868
leaf_weight=20429.96935261786 7537.5750785768032 3360.867129996419 11169.446582019329 1128.6167127788067
leaf_count=55829 53773 21027 13087 6161
internal_value=0.0143458 0.0198483 0.0241233 -0.0102376
internal_weight=43626.5 36088.9 31599.4 4489.48
internal_count=149877 96104 68916 27188
is_linear=0
shrinkage=0.01


Tree=17
num_leaves=5
num_cat=0
split_feature=8 0 8 4
split_gain=61280.5 33434.2 59155.1 7175.25
threshold=8.5000000000000018 124.00000000000001 3.0000000000000004 420.50000000000006
decision_type=2 2 2 2
left_child=1 3 -3 -1
right_child=-2 2 -4 -5
leaf_value=0.029147558188822836 -0.011962410351955784 -0.012450253686884434 0.026598071283124428 0.0028422848500398662
leaf_weight=19565.470223933458 7515.4580343067646 7281.7888229191303 8301.0205732285976 1096.0978552550077
leaf_count=29735 54039 43400 17620 5235
internal_value=0.0140231 0.0194118 0.00835066 0.0277528
internal_weight=43759.8 36244.4 15582.8 20661.6
internal_count=150029 95990 61020 34970
is_linear=0
shrinkage=0.01


Tree=18
num_leaves=5
num_cat=0
split_feature=8 0 8 22
split_gain=58834.2 32309.3 56691.8 8231.2
threshold=8.5000000000000018 121.00000000000001 3.0000000000000004 2121.0000000000005
decision_type=2 2 2 2
left_child=1 3 -3 -1
right_child=-2 2 -4 -5
leaf_value=0.028845512127506967 -0.011948941896620227 -0.012445365777012374 0.025861952974729447 0.0045267519532029739
leaf_weight=19343.565569326282 7412.0317955464125 7223.8120109736919 8301.933078110218 1501.2179091274738
leaf_count=28917 53730 43403 17528 6153
internal_value=0.0137275 0.0189607 0.00803804 0.0270949
internal_weight=43782.6 36370.5 15525.7 20844.8
internal_count=149731 96001 60931 35070
is_linear=0
shrinkage=0.01


Tree=19
num_leaves=5
num_cat=0
split_feature=8 15 29 7
split_gain=58229.7 20434.6 34473.9 134.479
threshold=8.5000000000000018 1647731.0764666854 26.000000000000004 4344.5000000000009
decision_type=2 2 2 2
left_child=1 2 -1 -3
right_child=-2 3 -4 -5
leaf_value=0.021672016666600666 -0.011930743293553337 0.027570891524289015 -0.0034135830642871463 0.030355694923195852
leaf_weight=17408.222163453698 7390.4211881011724 2432.5170515477657 7992.3440758734941 9215.1313198953867
leaf_count=40554 54010 3539 42112 10266
internal_value=0.0136967 0.0188094 0.0137786 0.0297774
internal_weight=44438.6 37048.2 25400.6 11647.6
internal_count=150481 96471 82666 13805
is_linear=0
shrinkage=0.01


Tree=20
num_leaves=5
num_cat=0
split_feature=5 0 11 22
split_gain=55048.1 30905.8 46999.4 7635.38
threshold=9.5000000000000018 435.00000000000006 9195.4508943756027 2121.0000000000005
decision_type=2 2 2 2
left_child=1 3 -3 -1
right_child=-2 2 -4 -5
leaf_value=0.027666384485336374 -0.011661823609086882 -0.011882388066735279 0.023226353798455748 0.0042443683341782954
leaf_weight=20137.872185021639 7325.420334905386 6899.2993101030588 8520.6666430234909 1496.6710412055254
leaf_count=29808 53604 41140 19401 6099
internal_value=0.0133846 0.0183366 0.00751738 0.0260468
internal_weight=44379.9 37054.5 15420 21634.5
internal_count=150052 96448 60541 35907
is_linear=0
shrinkage=0.01


Tree=21
num_leaves=5
num_cat=0
split_feature=8 31 15 31
split_gain=54826 41328.7 9074.17 260.066
threshold=8.5000000000000018 247.50000000000003 1427036.2380000001 28942.500000000004
decision_type=2 2 2 2
left_child=1 2 -1 -3
right_child=-2 3 -4 -5
leaf_value=0.018113039729542892 -0.011890481327682481 -0.011780139564548809 0.029085464408872982 -0.0062055680784424416
leaf_weight=21141.505142256618 7254.9902793318033 3337.6565661281347 11729.969092696905 1133.9361713379622
leaf_count=55777 53873 20915 13072 6178
internal_value=0.0132623 0.0181494 0.0220295 -0.0103704
internal_weight=44598.1 37343.1 32871.5 4471.59
internal_count=149815 95942 68849 27093
is_linear=0
shrinkage=0.01


Tree=22
num_leaves=5
num_cat=0
split_feature=8 31 4 31
split_gain=53184.5 39974.5 10324.4 273.622
threshold=8.5000000000000018 247.50000000000003 420.50000000000006 28942.500000000004
decision_type=2 2 2 2
left_child=1 2 -1 -3
right_child=-2 3 -4 -5
leaf_value=0.022849668437293941 -0.011850973625253527 -0.011789662898853122 -0.0028239904907855803 -0.0060346380428527172
leaf_weight=31486.756039559841 7212.0395135581493 3333.6287235617638 1647.4024879187346 1114.0535003691912
leaf_count=60408 53978 21033 8541 6079
internal_value=0.0130208 0.0177942 0.0215728 -0.0103521
internal_weight=44793.9 37581.8 33134.2 4447.68
internal_count=150039 96061 68949 27112
is_linear=0
shrinkage=0.01


Tree=23
num_leaves=5
num_cat=0
split_feature=30 0 3 22
split_gain=51111.7 29310.4 45837.2 6668.99
threshold=-1.0000000180025095e-35 435.00000000000006 2.5000000000000004 2121.0000000000005
decision_type=2 2 2 2
left_child=-1 3 -3 -2
right_child=1 2 -4 -5
leaf_value=-0.011871246092298835 0.026351961498799547 0.021998761925126949 -0.012409765792391531 0.004720917071339841
leaf_weight=7037.1359238624573 20698.600852072239 8897.8926306217909 6851.8039784729481 1532.4430598020554
leaf_count=52966 29794 19828 41260 6108
internal_value=0.0128809 0.0174675 0.00702908 0.0248616
internal_weight=45017.9 37980.7 15749.7 22231
internal_count=149956 96990 61088 35902
is_linear=0
shrinkage=0.01


Tree=24
num_leaves=5
num_cat=0
split_feature=0 31 0 0
split_gain=36747.8 39975 16511.8 10786
threshold=61.500000000000007 237.50000000000003 80.500000000000014 51.000000000000007
decision_type=2 2 2 2
left_child=3 2 -2 -1
right_child=1 -3 -4 -5
leaf_value=0.023663371091389329 0.026424667856778376 -0.010592080670818264 0.011950294242587561 -0.011797340138989768
leaf_weight=982.82598868012428 19778.721302345395 4675.1068883985281 13111.642667770386 6688.2679930925369
leaf_count=1944 26414 28863 42154 50910
internal_value=0.0126932 0.0167661 0.0206553 -0.00725029
internal_weight=45236.6 37565.5 32890.4 7671.09
internal_count=150285 97431 68568 52854
is_linear=0
shrinkage=0.01


Tree=25
num_leaves=5
num_cat=0
split_feature=8 0 3 32
split_gain=49538.4 27063.5 20872.2 7450.74
threshold=8.5000000000000018 33125.000000000007 428.50000000000006 1.0000000180025095e-35
decision_type=2 2 2 2
left_child=1 2 -1 -3
right_child=-2 3 -4 -5
leaf_value=0.023069546141247527 -0.011780723068759824 -0.012723228292734113 0.00039029794007083374 0.024902806371324814
leaf_weight=29481.242813661695 7071.9241513758898 3526.3854562044144 4706.7638221979141 617.48920373618603
leaf_count=51717 54196 19884 23276 1224
internal_value=0.0125356 0.0170222 0.0199476 -0.00710941
internal_weight=45403.8 38331.9 34188 4143.87
internal_count=150297 96101 74993 21108
is_linear=0
shrinkage=0.01


Tree=26
num_leaves=5
num_cat=0
split_feature=8 31 9 31
split_gain=47692.8 36255.8 9606.11 298.812
threshold=8.5000000000000018 247.50000000000003 1219512.1950609752 28942.500000000004
decision_type=2 2 2 2
left_child=1 2 -1 -3
right_child=-2 3 -4 -5
leaf_value=0.021261696601953886 -0.011764650874178112 -0.011696866336429539 -0.005528190761856823 -0.0057383600318845285
leaf_weight=32544.141558304429 6986.3177502304316 3314.2547451406717 1394.872715651989 1142.5737288594246
leaf_count=62175 53982 21141 6646 6224
internal_value=0.0122659 0.0166388 0.0201602 -0.0101732
internal_weight=45382.2 38395.8 33939 4456.83
internal_count=150168 96186 68821 27365
is_linear=0
shrinkage=0.01


Tree=27
num_leaves=5
num_cat=0
split_feature=8 4 15 15
split_gain=46590.6 17550 16123.2 764.762
threshold=8.5000000000000018 420.50000000000006 4.9000000000000012 39626.340600000003
decision_type=2 2 2 2
left_child=1 2 -1 -3
right_child=-2 3 -4 -5
leaf_value=0.0088255752726541219 -0.011737394503885392 0.0049279409070641794 0.023134540202121762 -0.008835563104977049
leaf_weight=11769.359652101994 6920.0424679070711 477.86053039133549 23823.367176175117 2552.4777454137802
leaf_count=37267 53905 2291 40944 15468
internal_value=0.0121555 0.0164368 0.0184037 -0.00666096
internal_weight=45543.1 38623.1 35592.7 3030.34
internal_count=149875 95970 78211 17759
is_linear=0
shrinkage=0.01


Tree=28
num_leaves=5
num_cat=0
split_feature=8 0 3 34
split_gain=45387 25184.6 19234.2 7026.71
threshold=8.5000000000000018 33125.000000000007 428.50000000000006 1.0000000180025095e-35
decision_type=2 2 2 2
left_child=1 2 -1 -3
right_child=-2 3 -4 -5
leaf_value=0.021963488488314305 -0.011727917057591027 0.021478541969524045 0.00033740319268439281 -0.012798968757079785
leaf_weight=29886.386792033911 6852.6103227585554 720.73758193850517 4769.941001996398 3485.9168063551188
leaf_count=51569 53828 1538 23348 19678
internal_value=0.0119986 0.0161827 0.0189874 -0.00692002
internal_weight=45715.6 38863 34656.3 4206.65
internal_count=149961 96133 74917 21216
is_linear=0
shrinkage=0.01


Tree=29
num_leaves=5
num_cat=0
split_feature=8 31 0 0
split_gain=44302.3 34226.3 15042.9 285.767
threshold=8.5000000000000018 247.50000000000003 33125.000000000007 257.50000000000006
decision_type=2 2 2 2
left_child=1 2 -1 -3
right_child=-2 3 -4 -5
leaf_value=0.02120171949228444 -0.011719100075087602 -0.0061833669924505428 -0.0039992224318624089 -0.011853468013370456
leaf_weight=32027.280275136232 6769.2349124699831 1255.2946296930313 2556.7667875438929 3153.6569772064686
leaf_count=56975 53617 6712 11551 20412
internal_value=0.0118934 0.0159931 0.0193383 -0.0102431
internal_weight=45762.2 38993 34584 4408.95
internal_count=149267 95650 68526 27124
is_linear=0
shrinkage=0.01


Tree=30
num_leaves=5
num_cat=0
split_feature=8 31 9 31
split_gain=43116.4 32962.7 8921.28 280.516
threshold=8.5000000000000018 247.50000000000003 907009.49885000009 28942.500000000004
decision_type=2 2 2 2
left_child=1 2 -1 -3
right_child=-2 3 -4 -5
leaf_value=0.020046902126072061 -0.01168667258341023 -0.011618130480726421 -0.0045279995903346557 -0.0057771508504499622
leaf_weight=33149.468998014927 6746.5738164782524 3273.1166888028383 1545.0742059797049 1112.966518804431
leaf_count=61596 53875 21065 7074 6073
internal_value=0.0116564 0.0156866 0.0189521 -0.0101399
internal_weight=45827.2 39080.6 34694.5 4386.08
internal_count=149683 95808 68670 27138
is_linear=0
shrinkage=0.01


Tree=31
num_leaves=5
num_cat=0
split_feature=5 15 29 5
split_gain=41921.1 15977.4 28657.6 226.862
threshold=9.5000000000000018 1647731.0764666854 26.000000000000004 163.50000000000003
decision_type=2 2 2 2
left_child=1 2 -1 -2
right_child=3 -3 -4 -5
leaf_value=0.017984804422585671 -0.011720220868358739 0.024808252942763113 -0.0043881228349355195 0.0033345779142141822
leaf_weight=18745.491108097136 6636.8701128065586 12558.041243597865 8241.1472740992904 100.18290521204472
leaf_count=40345 53178 13773 42544 538
internal_value=0.0115614 0.0154897 0.0111523 -0.0114944
internal_weight=46281.7 39544.7 26986.6 6737.05
internal_count=150378 96662 82889 53716
is_linear=0
shrinkage=0.01


Tree=32
num_leaves=5
num_cat=0
split_feature=8 0 4 32
split_gain=41455.2 23594.2 17822 7067.87
threshold=8.5000000000000018 33125.000000000007 420.50000000000006 1.0000000180025095e-35
decision_type=2 2 2 2
left_child=1 2 -1 -3
right_child=-2 3 -4 -5
leaf_value=0.020067829489145504 -0.011641557968402024 -0.012726996963690647 -0.0063423882076345641 0.022930678408859234
leaf_weight=32689.250778540969 6640.1851386800408 3524.2488718777895 2770.7112092375755 658.84393687546253
leaf_count=58535 53884 19957 16178 1246
internal_value=0.0114807 0.0153541 0.0180038 -0.00710433
internal_weight=46283.2 39643.1 35460 4183.09
internal_count=149800 95916 74713 21203
is_linear=0
shrinkage=0.01


Tree=33
num_leaves=5
num_cat=0
split_feature=8 0 8 22
split_gain=40449.8 23081.6 46133.7 5779.86
threshold=8.5000000000000018 124.00000000000001 3.0000000000000004 2121.0000000000005
decision_type=2 2 2 2
left_child=1 3 -3 -1
right_child=-2 2 -4 -5
leaf_value=0.022946840950695359 -0.011640135520534119 -0.01262096868474033 0.02088945406126403 0.0032829085329559304
leaf_weight=21430.628524050117 6601.5526696443558 7343.1469412147999 9322.7209084779024 1608.530083656311
leaf_count=28842 54031 43175 17712 6113
internal_value=0.0112788 0.0150899 0.00612396 0.0215746
internal_weight=46306.6 39705 16665.9 23039.2
internal_count=149873 95842 60887 34955
is_linear=0
shrinkage=0.01


Tree=34
num_leaves=5
num_cat=0
split_feature=8 31 0 31
split_gain=39421.9 31034 13693.6 299.259
threshold=8.5000000000000018 247.50000000000003 33125.000000000007 28942.500000000004
decision_type=2 2 2 2
left_child=1 2 -1 -3
right_child=-2 3 -4 -5
leaf_value=0.019714536206868416 -0.011608342264831895 -0.01177000314564183 -0.0040463130253990095 -0.0057612796607494823
leaf_weight=33066.771504357457 6529.135471150279 3253.7885652035475 2616.3602105081081 1126.5236151516438
leaf_count=57371 53877 21099 11707 6163
internal_value=0.0111748 0.0148883 0.017972 -0.0102286
internal_weight=46592.6 40063.4 35683.1 4380.31
internal_count=150217 96340 69078 27262
is_linear=0
shrinkage=0.01


Tree=35
num_leaves=5
num_cat=0
split_feature=30 31 30 31
split_gain=37602.7 30574.3 7838 322.331
threshold=-1.0000000180025095e-35 247.50000000000003 29286.000000000004 28942.500000000004
decision_type=2 2 2 2
left_child=-1 2 -2 -3
right_child=1 3 -4 -5
leaf_value=-0.011641553001969068 0.018366440810510372 -0.011611961993221415 -0.013559735011693557 -0.0054123027163318314
leaf_weight=6357.0954392403364 34633.407992452383 3353.8856770992279 785.39253550767899 1131.1308241337538
leaf_count=52662 64413 22089 4140 6186
internal_value=0.0109443 0.0145429 0.0176579 -0.0100522
internal_weight=46260.9 39903.8 35418.8 4485.02
internal_count=149490 96828 68553 28275
is_linear=0
shrinkage=0.01


Tree=36
num_leaves=5
num_cat=0
split_feature=8 4 15 7
split_gain=37326.5 14839.8 14339 1198.91
threshold=8.5000000000000018 420.50000000000006 4.9000000000000012 4380.5000000000009
decision_type=2 2 2 2
left_child=1 2 -1 -3
right_child=-2 3 -4 -5
leaf_value=0.0072523971239603401 -0.011570939980028601 -0.008314498235899196 0.020492645540798805 0.024143475029074934
leaf_weight=12182.947779864073 6408.0643117576838 2867.5792790651321 24917.036164224148 117.40758900344372
leaf_count=37487 53754 17394 40929 183
internal_value=0.0108368 0.0144194 0.0161454 -0.00702683
internal_weight=46493 40085 37100 2984.99
internal_count=149747 95993 78416 17577
is_linear=0
shrinkage=0.01


Tree=37
num_leaves=5
num_cat=0
split_feature=8 0 8 22
split_gain=36867.8 21827.4 43679.2 5453.81
threshold=8.5000000000000018 121.00000000000001 3.0000000000000004 2121.0000000000005
decision_type=2 2 2 2
left_child=1 3 -3 -1
right_child=-2 2 -4 -5
leaf_value=0.021873645366690377 -0.01153943966637711 -0.012629516767705852 0.019765512236519879 0.0029780417246738793
leaf_weight=21896.950953811407 6377.6590738743544 7368.5721647292376 9561.7973174899817 1643.729108646512
leaf_count=29005 53945 43233 17772 6178
internal_value=0.0108052 0.0143268 0.00566578 0.0205549
internal_weight=46848.7 40471 16930.4 23540.7
internal_count=150133 96188 61005 35183
is_linear=0
shrinkage=0.01


Tree=38
num_leaves=5
num_cat=0
split_feature=8 31 9 31
split_gain=35758.2 28699 7919.56 215.22
threshold=8.5000000000000018 247.50000000000003 907009.49885000009 28942.500000000004
decision_type=2 2 2 2
left_child=1 2 -1 -3
right_child=-2 3 -4 -5
leaf_value=0.017955090672273487 -0.011527286397135099 -0.011661300255270351 -0.0049611328186139961 -0.0065108138969733297
leaf_weight=34532.678553134203 6323.3528091013432 3203.413289129734 1575.8025774806738 1106.6712974905968
leaf_count=61949 53939 21033 7068 6143
internal_value=0.0105836 0.0140433 0.0169546 -0.010343
internal_weight=46741.9 40418.6 36108.5 4310.08
internal_count=150132 96193 69017 27176
is_linear=0
shrinkage=0.01


Tree=39
num_leaves=5
num_cat=0
split_feature=8 31 9 31
split_gain=35127.4 27734.9 7750.66 302.989
threshold=8.5000000000000018 247.50000000000003 907009.49885000009 28942.500000000004
decision_type=2 2 2 2
left_child=1 2 -1 -3
right_child=-2 3 -4 -5
leaf_value=0.017693210048954279 -0.011502633110489619 -0.011585467095083419 -0.0051988994015614619 -0.005529354367153131
leaf_weight=34742.499596625566 6307.1381707936525 3217.0287257656455 1543.6408012509346 1125.3222215473652
leaf_count=62140 54255 21274 6994 6168
internal_value=0.010452 0.0138607 0.016719 -0.01002
internal_weight=46935.6 40628.5 36286.1 4342.35
internal_count=150831 96576 69134 27442
is_linear=0
shrinkage=0.01


Tree=40
num_leaves=5
num_cat=0
split_feature=8 7 4 29
split_gain=34188.4 13653.8 24012 714.073
threshold=8.5000000000000018 4292.5000000000009 30.500000000000004 242.00000000000003
decision_type=2 2 2 2
left_child=1 2 -1 -3
right_child=-2 3 -4 -5
leaf_value=0.014574577221243626 -0.011490735867586848 0.022750254474961092 -0.0081729909151981341 0.011435061592804914
leaf_weight=21859.237221240997 6217.7757700309157 12217.991874694824 5889.6308327466249 591.45176219940186
leaf_count=49213 53942 12174 33069 1543
internal_value=0.0103418 0.0136893 0.00974598 0.0222295
internal_weight=46776.1 40558.3 27748.9 12809.4
internal_count=149941 95999 82282 13717
is_linear=0
shrinkage=0.01


Tree=41
num_leaves=5
num_cat=0
split_feature=8 0 8 2
split_gain=33401.5 20766.7 41603.2 2947.84
threshold=8.5000000000000018 124.00000000000001 3.0000000000000004 15.500000000000002
decision_type=2 2 2 2
left_child=1 3 -3 -1
right_child=-2 2 -4 -5
leaf_value=0.020195602457380703 -0.011446373138713032 -0.01273239568179297 0.018773966017598172 -0.000720123765920675
leaf_weight=23166.492863848805 6140.5100950077176 7386.8330433368683 9684.5869911313057 693.00820453464985
leaf_count=32046 53707 43457 17700 3165
internal_value=0.0102998 0.0135626 0.00514058 0.0195877
internal_weight=47071.4 40930.9 17071.4 23859.5
internal_count=150075 96368 61157 35211
is_linear=0
shrinkage=0.01


Tree=42
num_leaves=5
num_cat=0
split_feature=8 31 0 0
split_gain=33048.2 26145.2 12153.7 253.164
threshold=8.5000000000000018 247.50000000000003 33125.000000000007 257.50000000000006
decision_type=2 2 2 2
left_child=1 2 -1 -3
right_child=-2 3 -4 -5
leaf_value=0.017752068555191371 -0.011462127316470316 -0.0062099507566378415 -0.0044793562277447678 -0.011635106175608024
leaf_weight=33934.047512099147 6141.9321863353252 1221.461009696126 2650.0673117637634 3021.9289844334126
leaf_count=57381 54194 6529 11575 20381
internal_value=0.0101623 0.0134158 0.0161413 -0.0100777
internal_weight=46969.4 40827.5 36584.1 4243.39
internal_count=150060 95866 68956 26910
is_linear=0
shrinkage=0.01


Tree=43
num_leaves=5
num_cat=0
split_feature=8 4 15 7
split_gain=32209.5 12928.7 13028.4 1187.32
threshold=8.5000000000000018 420.50000000000006 4.9000000000000012 4380.5000000000009
decision_type=2 2 2 2
left_child=1 2 -1 -3
right_child=-2 3 -4 -5
leaf_value=0.0064639820231336643 -0.011457817288328172 -0.0081464977275986592 0.018932966343742121 0.022407110651464019
leaf_weight=12492.185176193714 6051.4195685386658 2851.3349841460586 25480.252639368176 132.01839172840118
leaf_count=37578 53859 17383 40894 194
internal_value=0.0100746 0.0132565 0.0148315 -0.00678404
internal_weight=47007.2 40955.8 37972.4 2983.35
internal_count=149908 96049 78472 17577
is_linear=0
shrinkage=0.01


Tree=44
num_leaves=5
num_cat=0
split_feature=30 15 3 3
split_gain=31113.2 13184.2 24189 479.382
threshold=-1.0000000180025095e-35 1647731.0764666854 2.5000000000000004 870.50000000000011
decision_type=2 2 2 2
left_child=-1 2 -2 -3
right_child=1 3 -4 -5
leaf_value=-0.011487346953531119 0.017764313414518534 0.021741649615995454 -0.00083225933255764127 0.011517543913148836
leaf_weight=5960.9823959469795 15057.84190351516 12358.241239160299 13058.814318858087 484.3885659724474
leaf_count=53210 27951 12205 55459 1341
internal_value=0.00985596 0.0129626 0.00912704 0.0213577
internal_weight=46920.3 40959.3 28116.7 12842.6
internal_count=150166 96956 83410 13546
is_linear=0
shrinkage=0.01


Tree=45
num_leaves=5
num_cat=0
split_feature=8 7 4 28
split_gain=30984.5 12463.8 22393.4 756.345
threshold=8.5000000000000018 4292.5000000000009 30.500000000000004 326.00000000000006
decision_type=2 2 2 2
left_child=1 2 -1 -3
right_child=-2 3 -4 -5
leaf_value=0.013789692334419979 -0.011410982337016458 0.021491924552007761 -0.008176257467935601 0.0086148345114924179
leaf_weight=22234.002082794905 5972.1812460124493 12604.669845342636 5864.0374571830034 477.85038296878338
leaf_count=49005 54048 12454 32995 1412
internal_value=0.00987292 0.0129601 0.00920493 0.021023
internal_weight=47152.7 41180.6 28098 13082.5
internal_count=149914 95866 82000 13866
is_linear=0
shrinkage=0.01


Tree=46
num_leaves=5
num_cat=0
split_feature=8 7 4 29
split_gain=30056.8 12382.1 22047 657.862
threshold=8.5000000000000018 4292.5000000000009 28.500000000000004 242.00000000000003
decision_type=2 2 2 2
left_child=1 2 -1 -3
right_child=-2 3 -4 -5
leaf_value=0.013569305121343725 -0.011380660475785041 0.021287339272259214 -0.0081828029487682214 0.010900866204820826
leaf_weight=22124.507177069783 5907.992624618113 12430.35618725419 5901.3486310243607 648.96093092858791
leaf_count=48695 53913 12248 33338 1633
internal_value=0.00970766 0.0127391 0.00898852 0.0207736
internal_weight=47013.2 41105.2 28025.9 13079.3
internal_count=149827 95914 82033 13881
is_linear=0
shrinkage=0.01


Tree=47
num_leaves=5
num_cat=0
split_feature=30 31 30 31
split_gain=29017.5 25545 6972.04 293.097
threshold=-1.0000000180025095e-35 247.50000000000003 29286.000000000004 28942.500000000004
decision_type=2 2 2 2
left_child=-1 2 -2 -3
right_child=1 3 -4 -5
leaf_value=-0.011445185748770284 0.015909009220844074 -0.011790482357024455 -0.013850143654845893 -0.0058402314661010982
leaf_weight=5751.4703452810645 35932.3642225191 3263.2601632997394 803.80981507897377 1123.9146739095449
leaf_count=52662 64414 21993 4184 6039
internal_value=0.00959092 0.0125335 0.0152572 -0.0102701
internal_weight=46874.8 41123.3 36736.2 4387.17
internal_count=149292 96630 68598 28032
is_linear=0
shrinkage=0.01


Tree=48
num_leaves=5
num_cat=0
split_feature=8 31 0 0
split_gain=28768.7 24468.5 12076.6 227.309
threshold=8.5000000000000018 247.50000000000003 124.00000000000001 257.50000000000006
decision_type=2 2 2 2
left_child=1 2 -1 -3
right_child=-2 3 -4 -5
leaf_value=0.019521841787582789 -0.011355210964310754 -0.0066546713063907774 0.0077621555140520446 -0.01176738978618793
leaf_weight=22764.918170958757 5821.6113208010793 1243.2093946039677 14176.275267198682 3022.7573510706425
leaf_count=28490 54035 6688 40426 20497
internal_value=0.00945104 0.0123909 0.0150096 -0.0102817
internal_weight=47028.8 41207.2 36941.2 4265.97
internal_count=150136 96101 68916 27185
is_linear=0
shrinkage=0.01


Tree=49
num_leaves=5
num_cat=0
split_feature=8 31 0 0
split_gain=28439.9 23823.7 12083.7 242.808
threshold=8.5000000000000018 247.50000000000003 33125.000000000007 257.50000000000006
decision_type=2 2 2 2
left_child=1 2 -1 -3
right_child=-2 3 -4 -5
leaf_value=0.016519521597651649 -0.011338718258448 -0.0063709622481567044 -0.0054383218640252145 -0.01167994574605671
leaf_weight=34566.275350749493 5756.8827531561255 1230.4057358950377 2700.9470079988241 2990.2684539034963
leaf_count=57239 53898 6621 11715 20410
internal_value=0.00948721 0.0123775 0.0149278 -0.0101365
internal_weight=47244.8 41487.9 37267.2 4220.67
internal_count=149883 95985 68954 27031
is_linear=0
shrinkage=0.01


Tree=50
num_leaves=5
num_cat=0
split_feature=8 0 3 32
split_gain=27801.1 18631 13071.9 5896.02
threshold=8.5000000000000018 33125.000000000007 428.50000000000006 1.0000000180025095e-35
decision_type=2 2 2 2
left_child=1 2 -1 -3
right_child=-2 3 -4 -5
leaf_value=0.016713789453733266 -0.011337121329438735 -0.012806458270341953 -0.000925061346289931 0.019444359577658204
leaf_weight=32376.079839348793 5730.1135024428368 3570.7638290598989 4826.6074675321579 672.66941837221384
leaf_count=51541 54116 20075 23352 1209
internal_value=0.0093062 0.0121607 0.0144251 -0.00768832
internal_weight=47176.2 41446.1 37202.7 4243.43
internal_count=150293 96177 74893 21284
is_linear=0
shrinkage=0.01


Tree=51
num_leaves=5
num_cat=0
split_feature=30 31 0 31
split_gain=26810.7 23567.6 11996.8 271.955
threshold=-1.0000000180025095e-35 247.50000000000003 435.00000000000006 28942.500000000004
decision_type=2 2 2 2
left_child=-1 2 -2 -3
right_child=1 3 -4 -5
leaf_value=-0.011380571089944337 0.018933278241075054 -0.011632227245946593 0.0071619182560658506 -0.0058843115376668214
leaf_weight=5594.1212615221739 23138.520585492253 3200.1744935438037 13842.317199252546 1123.8998809084296
leaf_count=52969 28898 22008 39711 6156
internal_value=0.00916204 0.0119447 0.0145277 -0.0101423
internal_weight=46899 41304.9 36980.8 4324.07
internal_count=149742 96773 68609 28164
is_linear=0
shrinkage=0.01


Tree=52
num_leaves=5
num_cat=0
split_feature=8 31 9 31
split_gain=26462.2 22502.3 6527.82 268.752
threshold=8.5000000000000018 247.50000000000003 907009.49885000009 28942.500000000004
decision_type=2 2 2 2
left_child=1 2 -1 -3
right_child=-2 3 -4 -5
leaf_value=0.015220511792858295 -0.011284320357246523 -0.011586610952013117 -0.0056513950900562463 -0.0058359258277636541
leaf_weight=35786.83933493495 5595.334170550108 3082.4161187931895 1562.7369575947523 1119.4262471273541
leaf_count=62077 53746 21081 6926 6150
internal_value=0.00912909 0.0118784 0.0143468 -0.0100587
internal_weight=47146.8 41551.4 37349.6 4201.84
internal_count=149980 96234 69003 27231
is_linear=0
shrinkage=0.01


Tree=53
num_leaves=5
num_cat=0
split_feature=8 31 0 0
split_gain=26037.2 21890.4 11240.3 260.389
threshold=8.5000000000000018 247.50000000000003 124.00000000000001 257.50000000000006
decision_type=2 2 2 2
left_child=1 2 -1 -3
right_child=-2 3 -4 -5
leaf_value=0.018552515967060808 -0.01127614861665936 -0.0060795392186730928 0.0072828402407012138 -0.011599470215036149
leaf_weight=23095.848732620478 5529.4162613004446 1226.1971156448126 14357.259485945106 2922.8053465485573
leaf_count=28625 53573 6643 40185 20436
internal_value=0.00910871 0.0118185 0.014233 -0.00997238
internal_weight=47131.5 41602.1 37453.1 4149
internal_count=149462 95889 68810 27079
is_linear=0
shrinkage=0.01


Tree=54
num_leaves=5
num_cat=0
split_feature=12 31 0 0
split_gain=25515.5 22140.8 10886.5 266.961
threshold=10.000000000000002 247.50000000000003 33125.000000000007 257.50000000000006
decision_type=2 2 2 2
left_child=1 2 -1 -3
right_child=-2 3 -4 -5
leaf_value=0.015600797586890534 -0.011238318299333711 -0.006011250028076379 -0.0052661140685541872 -0.011556691749012193
leaf_weight=34742.679426707327 5518.486250564456 1235.2735266759992 2692.8161482214928 3026.3115628510714
leaf_count=57122 53400 6720 11538 21547
internal_value=0.00896626 0.0116407 0.0140994 -0.00995341
internal_weight=47215.6 41697.1 37435.5 4261.59
internal_count=150327 96927 68660 28267
is_linear=0
shrinkage=0.01


Tree=55
num_leaves=5
num_cat=0
split_feature=8 31 30 31
split_gain=25211.2 20828.8 6724.21 254.668
threshold=8.5000000000000018 247.50000000000003 29286.000000000004 28942.500000000004
decision_type=2 2 2 2
left_child=1 2 -1 -3
right_child=-2 3 -4 -5
leaf_value=0.014511336991051236 -0.011268954302334908 -0.011479716576901748 -0.014143027617181215 -0.0057640605852119966
leaf_weight=36774.846168577671 5476.2506288513541 2985.2641720175743 836.49906507134438 1070.7538729682565
leaf_count=64810 53986 20859 4221 5972
internal_value=0.00890027 0.0115515 0.0138734 -0.00997509
internal_weight=47143.6 41667.4 37611.3 4056.02
internal_count=149848 95862 69031 26831
is_linear=0
shrinkage=0.01


Tree=56
num_leaves=5
num_cat=0
split_feature=12 21 31 29
split_gain=24571.8 19156.7 18930.5 5421.29
threshold=4.0000000000000009 81144.96898000002 247.50000000000003 266.00000000000006
decision_type=2 2 2 2
left_child=2 -2 3 -1
right_child=1 -3 -4 -5
leaf_value=0.015950282427199401 -0.011743313130822537 0.019235850633178921 -0.009739611300688596 -0.0036309445935716602
leaf_weight=31418.029693648219 8342.0953494757414 2622.7309473827481 3391.7280169576406 1479.3282640725374
leaf_count=49411 66998 4202 23362 6377
internal_value=0.00878634 -0.00433126 0.0127501 0.0150694
internal_weight=47253.9 10964.8 36289.1 32897.4
internal_count=150350 71200 79150 55788
is_linear=0
shrinkage=0.01


Tree=57
num_leaves=5
num_cat=0
split_feature=12 4 28 29
split_gain=23804.9 10502.8 8202.38 596.946
threshold=10.000000000000002 420.50000000000006 22.000000000000004 978.00000000000011
decision_type=2 2 2 2
left_child=1 2 -1 -3
right_child=-2 3 -4 -5
leaf_value=-0.012318528024063814 -0.011145948028827495 -0.008608709576983389 0.013490215006375929 0.0047376031479290769
leaf_weight=1272.3185517638922 5360.7385611906648 2584.4131051301956 37293.256122596562 383.37086636573076
leaf_count=6941 53124 15776 72075 1800
internal_value=0.0086833 0.0112431 0.0126382 -0.00688028
internal_weight=46894.1 41533.4 38565.6 2967.78
internal_count=149716 96592 79016 17576
is_linear=0
shrinkage=0.01


Tree=58
num_leaves=5
num_cat=0
split_feature=8 0 8 22
split_gain=23641.2 16783.2 36355.5 4662.74
threshold=8.5000000000000018 124.00000000000001 3.0000000000000004 2121.0000000000005
decision_type=2 2 2 2
left_child=1 3 -3 -1
right_child=-2 2 -4 -5
leaf_value=0.017753886644899353 -0.011197159283477087 -0.013022162526923786 0.016115684883151567 0.00057677025936445341
leaf_weight=22687.985259518027 5312.2553530335426 7448.7808088585734 10069.209656327963 1699.9857874065638
leaf_count=29046 53680 43329 17685 6160
internal_value=0.00867404 0.0111935 0.00372545 0.016557
internal_weight=47218.2 41906 17518 24388
internal_count=149900 96220 61014 35206
is_linear=0
shrinkage=0.01


Tree=59
num_leaves=5
num_cat=0
split_feature=8 0 8 4
split_gain=23036 17154.5 34804 3275.53
threshold=8.5000000000000018 124.00000000000001 3.0000000000000004 420.50000000000006
decision_type=2 2 2 2
left_child=1 3 -3 -1
right_child=-2 2 -4 -5
leaf_value=0.01721856361681447 -0.011198552403006087 -0.013030005419034612 0.015625159529431866 0.00056580942726850185
leaf_weight=22953.541353732347 5306.989512629807 7427.5934938192368 9869.1927888542414 1246.6231642663479
leaf_count=29606 54099 43526 17612 5395
internal_value=0.00841657 0.0109256 0.00331943 0.0163612
internal_weight=46803.9 41497 17296.8 24200.2
internal_count=150238 96139 61138 35001
is_linear=0
shrinkage=0.01


Tree=60
num_leaves=5
num_cat=0
split_feature=12 2 3 13
split_gain=22977.3 16094 11067 6489.71
threshold=4.0000000000000009 3.5000000000000004 428.50000000000006 2.5000000000000004
decision_type=2 2 2 2
left_child=2 -2 3 -1
right_child=1 -3 -4 -5
leaf_value=0.0062080960664154007 -0.012064329984535788 0.014919088834565272 -0.0016922463915168202 0.016980622949106693
leaf_weight=7287.2355218082666 7695.9116666167974 3099.7444052398205 4888.2796964943409 24111.298700578511
leaf_count=20553 63375 7808 24110 34283
internal_value=0.00849165 -0.00431502 0.012302 0.014481
internal_weight=47082.5 10795.7 36286.8 31398.5
internal_count=150129 71183 78946 54836
is_linear=0
shrinkage=0.01


Tree=61
num_leaves=5
num_cat=0
split_feature=12 31 2 4
split_gain=22307.1 17636.7 15600.1 6748.36
threshold=4.0000000000000009 247.50000000000003 3.5000000000000004 420.50000000000006
decision_type=2 2 2 2
left_child=1 3 -2 -1
right_child=2 -3 -4 -5
leaf_value=0.015436913942818322 -0.012114311281800006 -0.0096290681920354511 0.014659213281967367 -0.004515111250434539
leaf_weight=30992.062790371478 7544.3073419332504 3383.9378483369946 3057.233359195292 1792.0712437406182
leaf_count=47125 62824 23421 7768 8386
internal_value=0.00836321 0.0121023 -0.00439186 0.0143459
internal_weight=46769.6 36168.1 10601.5 32784.1
internal_count=149524 78932 70592 55511
is_linear=0
shrinkage=0.01


Tree=62
num_leaves=5
num_cat=0
split_feature=8 0 8 28
split_gain=21883.7 16152.5 34078.6 4118.7
threshold=8.5000000000000018 121.00000000000001 3.0000000000000004 50.000000000000007
decision_type=2 2 2 2
left_child=1 3 -3 -1
right_child=-2 2 -4 -5
leaf_value=0.0013707610740063159 -0.011161154235981081 -0.012934355816782666 0.015344034444851913 0.017139753038367692
leaf_weight=1789.3918338268995 5133.4558163955808 7388.5823807343841 10066.213441640139 22542.862123593688
leaf_count=4840 53583 43478 17654 30314
internal_value=0.00832105 0.0107148 0.00337322 0.0159806
internal_weight=46920.5 41787 17454.8 24332.3
internal_count=149869 96286 61132 35154
is_linear=0
shrinkage=0.01


Tree=63
num_leaves=5
num_cat=0
split_feature=8 0 4 30
split_gain=21493 15690.4 10830.3 2435.03
threshold=8.5000000000000018 33125.000000000007 420.50000000000006 1023.5000000000001
decision_type=2 2 2 2
left_child=1 2 -1 -3
right_child=-2 3 -4 -5
leaf_value=0.014193279146599454 -0.011123930910460447 -0.012684153062553447 -0.0065921505744570251 0.0038429359746891961
leaf_weight=34923.91722240299 5081.4413580298424 2928.5100358054042 2699.4146052226424 1279.7201306074858
leaf_count=58798 53484 16956 16121 4349
internal_value=0.00829399 0.0106532 0.0127016 -0.00765618
internal_weight=46913 41831.6 37623.3 4208.23
internal_count=149708 96224 74919 21305
is_linear=0
shrinkage=0.01


Tree=64
num_leaves=5
num_cat=0
split_feature=12 21 3 7
split_gain=21306.8 17346.1 10508.9 9258.89
threshold=4.0000000000000009 61800.990738602653 428.50000000000006 5.0000000000000009
decision_type=2 2 2 2
left_child=2 -2 3 -1
right_child=1 -3 -4 -5
leaf_value=0.0053372943371820308 -0.011787570682923248 0.017740582015355399 -0.0019091842609807702 0.017371141729860248
leaf_weight=8987.201911047101 7920.1904295161366 2655.5222362354398 4856.8855544179678 22187.552750065923
leaf_count=26384 66886 4316 24249 28143
internal_value=0.00810789 -0.00437124 0.011771 0.0139026
internal_weight=46607.4 10575.7 36031.6 31174.8
internal_count=149978 71202 78776 54527
is_linear=0
shrinkage=0.01


Tree=65
num_leaves=5
num_cat=0
split_feature=8 15 3 3
split_gain=20685.6 10466.7 19457.9 331.361
threshold=8.5000000000000018 1647731.0764666854 2.5000000000000004 882.50000000000011
decision_type=2 2 2 2
left_child=1 2 -1 -3
right_child=-2 3 -4 -5
leaf_value=0.014595558450238284 -0.011097826529029272 0.018228781748606818 -0.0019312020953905502 0.0096559857046774715
leaf_weight=15578.791822254658 5018.5334837734699 12332.164411187172 13123.678761258721 476.94429011642933
leaf_count=27937 53740 12227 54233 1366
internal_value=0.00807582 0.0103943 0.00703885 0.0179111
internal_weight=46530.1 41511.6 28702.5 12809.1
internal_count=149503 95763 82170 13593
is_linear=0
shrinkage=0.01


Tree=66
num_leaves=5
num_cat=0
split_feature=30 0 2 22
split_gain=20389.7 15999.3 30697.7 4263.98
threshold=-1.0000000180025095e-35 435.00000000000006 1.5000000000000002 2121.0000000000005
decision_type=2 2 2 2
left_child=-1 3 -3 -2
right_child=1 2 -4 -5
leaf_value=-0.011189353500732038 0.01660452766799023 0.014142833735992089 -0.012976201706708388 0.00032704023496248562
leaf_weight=4919.2353971675038 23060.178943455219 10081.734516054392 7121.4912587180734 1731.4364574551582
leaf_count=52922 29829 20352 40933 6112
internal_value=0.00807007 0.0103265 0.00291589 0.0154682
internal_weight=46914.1 41994.8 17203.2 24791.6
internal_count=150148 97226 61285 35941
is_linear=0
shrinkage=0.01


Tree=67
num_leaves=5
num_cat=0
split_feature=12 21 4 0
split_gain=20187 16585.6 10533 9920.04
threshold=4.0000000000000009 87926.176050000024 420.50000000000006 33125.000000000007
decision_type=2 2 2 2
left_child=2 -2 3 -1
right_child=1 -3 -4 -5
leaf_value=0.014681439787135217 -0.011617135976095951 0.017617824656178647 -0.0069065294180639626 -0.0052615523517248967
leaf_weight=30787.211855098605 7781.1445046216249 2584.0701664090157 2865.1125255599618 2712.8108320757747
leaf_count=49018 66824 4106 17437 12646
internal_value=0.00798305 -0.00432684 0.0114921 0.0130661
internal_weight=46730.3 10365.2 36365.1 33500
internal_count=150031 70930 79101 61664
is_linear=0
shrinkage=0.01


Tree=68
num_leaves=5
num_cat=0
split_feature=12 21 31 2
split_gain=19536.1 17020.1 16445.2 5136.87
threshold=4.0000000000000009 75511.372915000014 247.50000000000003 10.500000000000002
decision_type=2 2 2 2
left_child=2 -2 3 -1
right_child=1 -3 -4 -5
leaf_value=0.014430330685224603 -0.011706982789904861 0.017400473281532707 -0.0096810178942401577 -0.0042761334845564701
leaf_weight=31458.544957414269 7703.6212779358029 2716.2690501362085 3353.5729527100921 1538.5405909121037
leaf_count=48831 66723 4290 23293 6840
internal_value=0.00795305 -0.00411732 0.0114133 0.0135577
internal_weight=46770.5 10419.9 36350.7 32997.1
internal_count=149977 71013 78964 55671
is_linear=0
shrinkage=0.01


Tree=69
num_leaves=5
num_cat=0
split_feature=12 21 2 7
split_gain=19010.1 16169.5 8999.07 7301.38
threshold=4.0000000000000009 75511.372915000014 9.5000000000000018 5.0000000000000009
decision_type=2 2 2 2
left_child=2 -2 3 -1
right_child=1 -3 -4 -5
leaf_value=0.0051562541376251308 -0.011568302434328574 0.017168468287103694 -0.0051047651567814843 0.015655577630466322
leaf_weight=9165.2337143197656 7629.9683662950993 2632.7255650758743 3085.5236613824964 23924.181284233928
leaf_count=26567 66506 4199 17151 35181
internal_value=0.00781698 -0.00419443 0.0112249 0.012748
internal_weight=46437.6 10262.7 36174.9 33089.4
internal_count=149604 70705 78899 61748
is_linear=0
shrinkage=0.01


Tree=70
num_leaves=5
num_cat=0
split_feature=8 0 8 28
split_gain=19015.8 14515.9 31698.5 3776.62
threshold=8.5000000000000018 121.00000000000001 3.0000000000000004 50.000000000000007
decision_type=2 2 2 2
left_child=1 3 -3 -1
right_child=-2 2 -4 -5
leaf_value=0.00098843195889159016 -0.011087348134222939 -0.012921433376719492 0.014412786153799975 0.016108328717083616
leaf_weight=1786.253469273448 4796.0574323013425 7283.4172381535172 10158.205067589879 22233.195835113525
leaf_count=4775 53608 43286 17608 30025
internal_value=0.00776151 0.00994233 0.00299768 0.0149844
internal_weight=46257.1 41461.1 17441.6 24019.4
internal_count=149302 95694 60894 34800
is_linear=0
shrinkage=0.01


Tree=71
num_leaves=5
num_cat=0
split_feature=30 0 3 28
split_gain=18608.7 14760.6 27804.6 3089.84
threshold=-1.0000000180025095e-35 435.00000000000006 2.5000000000000004 50.000000000000007
decision_type=2 2 2 2
left_child=-1 3 -3 -2
right_child=1 2 -4 -5
leaf_value=-0.011123629158484366 0.0032431699557598317 0.013181504247825581 -0.012782753896032457 0.01588632022512328
leaf_weight=4724.4896857142448 2118.4953338652849 10209.083352610469 6918.4915550202131 22386.769142486155
leaf_count=53097 5263 19909 41322 30589
internal_value=0.00768152 0.00981599 0.00269282 0.0147939
internal_weight=46357.3 41632.8 17127.6 24505.3
internal_count=150180 97083 61231 35852
is_linear=0
shrinkage=0.01


Tree=72
num_leaves=5
num_cat=0
split_feature=8 15 3 3
split_gain=18470.9 9675.06 17778.9 437.677
threshold=8.5000000000000018 1427036.2380000001 2.5000000000000004 1003.5000000000001
decision_type=2 2 2 2
left_child=1 2 -1 -3
right_child=-2 3 -4 -5
leaf_value=0.013731317883104135 -0.011011750765315223 0.017363417527166171 -0.0020829731477036953 0.0074135361940157506
leaf_weight=15686.957444861531 4752.4085405915976 12394.197454951704 12997.608258537948 464.28677044808865
leaf_count=27883 54049 12496 54177 1498
internal_value=0.00766084 0.00979738 0.00656534 0.0170055
internal_weight=46295.5 41543 28684.6 12858.5
internal_count=150103 96054 82060 13994
is_linear=0
shrinkage=0.01


Tree=73
num_leaves=5
num_cat=0
split_feature=30 15 3 3
split_gain=17904.1 9746.15 17766.3 321.398
threshold=-1.0000000180025095e-35 1647731.0764666854 2.5000000000000004 929.50000000000011
decision_type=2 2 2 2
left_child=-1 2 -2 -3
right_child=1 3 -4 -5
leaf_value=-0.011113205542788917 0.013604500317736268 0.017239972690325209 -0.0021077783578243412 0.0087467799425206185
leaf_weight=4612.1200600713491 15783.336288310587 12293.172691091895 13224.749683849514 470.64601561427116
leaf_count=52689 27957 12393 55772 1390
internal_value=0.00758157 0.00964615 0.00644112 0.0169283
internal_weight=46384 41771.9 29008.1 12763.8
internal_count=150201 97512 83729 13783
is_linear=0
shrinkage=0.01


Tree=74
num_leaves=5
num_cat=0
split_feature=8 7 3 29
split_gain=17886.1 9167.28 16992.5 510.361
threshold=8.5000000000000018 4292.5000000000009 2.5000000000000004 242.00000000000003
decision_type=2 2 2 2
left_child=1 2 -1 -3
right_child=-2 3 -4 -5
leaf_value=0.013481848600503837 -0.011013153570642489 0.017162134627311913 -0.0019087398096380023 0.0078538538787929057
leaf_weight=15899.218619182706 4654.3588692098856 12151.737360201776 13068.91975069046 625.85792714357376
leaf_count=28033 53888 12277 54401 1622
internal_value=0.00757821 0.00965147 0.00653824 0.0167076
internal_weight=46400.1 41745.7 28968.1 12777.6
internal_count=150221 96333 82434 13899
is_linear=0
shrinkage=0.01


Tree=75
num_leaves=5
num_cat=0
split_feature=12 15 29 6
split_gain=17259 9467.83 17191.8 284.706
threshold=10.000000000000002 1647731.0764666854 26.000000000000004 133.87689395000004
decision_type=2 2 2 2
left_child=1 2 -1 -3
right_child=-2 3 -4 -5
leaf_value=0.011300545649087451 -0.01092568836454764 0.016978851363363148 -0.0056473048996150159 0.0089354380221316927
leaf_weight=20332.191894426942 4603.2201172858477 12206.434415519238 8480.654860958457 465.7090770304203
leaf_count=40361 53320 12403 42562 1337
internal_value=0.00744235 0.00948094 0.00631182 0.0166848
internal_weight=46088.2 41485 28812.8 12672.1
internal_count=149983 96663 82923 13740
is_linear=0
shrinkage=0.01


Tree=76
num_leaves=5
num_cat=0
split_feature=8 31 0 31
split_gain=17098.6 16494.3 9327.41 264.365
threshold=8.5000000000000018 247.50000000000003 124.00000000000001 28942.500000000004
decision_type=2 2 2 2
left_child=1 2 -1 -3
right_child=-2 3 -4 -5
leaf_value=0.015445258263999857 -0.010972703507265884 -0.011366369888191719 0.005197205651594111 -0.0056263694640980169
leaf_weight=22910.8506616503 4573.8098411411047 2924.4695921763778 14511.403601080179 1121.4703178629279
leaf_count=28789 53868 21033 40208 6114
internal_value=0.00737393 0.00939796 0.0114718 -0.00977959
internal_weight=46042 41468.2 37422.3 4045.94
internal_count=150012 96144 68997 27147
is_linear=0
shrinkage=0.01


Tree=77
num_leaves=5
num_cat=0
split_feature=8 31 30 31
split_gain=16855.1 16642.9 5439.31 178.644
threshold=8.5000000000000018 247.50000000000003 29286.000000000004 28942.500000000004
decision_type=2 2 2 2
left_child=1 2 -1 -3
right_child=-2 3 -4 -5
leaf_value=0.011932058994789049 -0.010996318477511178 -0.011317361604217901 -0.01423462923513805 -0.0065636021495945078
leaf_weight=36460.10253970325 4553.344048820436 2927.1163360476494 810.95651561021805 1106.9867879599333
leaf_count=64691 54137 21172 4186 6167
internal_value=0.00726057 0.00927361 0.0113621 -0.0100173
internal_weight=45858.5 41305.2 37271.1 4034.1
internal_count=150353 96216 68877 27339
is_linear=0
shrinkage=0.01


Tree=78
num_leaves=5
num_cat=0
split_feature=30 31 0 31
split_gain=16506.9 16525.7 9417.01 214.704
threshold=-1.0000000180025095e-35 247.50000000000003 435.00000000000006 28942.500000000004
decision_type=2 2 2 2
left_child=-1 2 -2 -3
right_child=1 3 -4 -5
leaf_value=-0.011048875837511667 0.015252781537393092 -0.011246475328566626 0.0048974648467324028 -0.0060371772472595977
leaf_weight=4448.3854756876826 23098.510448999703 2995.8451270386577 14175.892174445093 1094.1176292449236
leaf_count=53137 29133 22087 39621 6058
internal_value=0.00725255 0.00922117 0.011315 -0.00985718
internal_weight=45812.8 41364.4 37274.4 4089.96
internal_count=150036 96899 68754 28145
is_linear=0
shrinkage=0.01


Tree=79
num_leaves=5
num_cat=0
split_feature=12 21 31 0
split_gain=16404 14942.5 14439.8 5240.41
threshold=4.0000000000000009 70650.625960000019 247.50000000000003 33125.000000000007
decision_type=2 2 2 2
left_child=2 -2 3 -1
right_child=1 -3 -4 -5
leaf_value=0.01335614776516624 -0.011595928600467955 0.016347357754455775 -0.0096597713701623497 -0.0033911728694398513
leaf_weight=30571.104099541903 7271.5981549620628 2595.9043753668666 3285.519103012979 1988.6580891609192
leaf_count=48029 67181 4217 23289 7489
internal_value=0.00717357 -0.00424279 0.0103166 0.0123329
internal_weight=45712.8 9867.5 35845.3 32559.8
internal_count=150205 71398 78807 55518
is_linear=0
shrinkage=0.01


Tree=80
num_leaves=5
num_cat=0
split_feature=30 0 2 19
split_gain=15892 13706.8 27923.7 2434.46
threshold=-1.0000000180025095e-35 435.00000000000006 1.5000000000000002 1130.5000000000002
decision_type=2 2 2 2
left_child=-1 3 -3 -2
right_child=1 2 -4 -5
leaf_value=-0.011038511348263272 0.01451015299232262 0.012838534589470429 -0.013095928610701097 -0.0013735517837525036
leaf_weight=4368.8707291334867 23241.922351688147 10089.178204923868 7052.8411870077252 1005.3658340498805
leaf_count=53135 33015 20256 41191 2953
internal_value=0.00709772 0.00901256 0.00216744 0.0138511
internal_weight=45758.2 41389.3 17142 24247.3
internal_count=150550 97415 61447 35968
is_linear=0
shrinkage=0.01


Tree=81
num_leaves=5
num_cat=0
split_feature=8 31 0 31
split_gain=15704.2 15620.4 8713.6 227.964
threshold=8.5000000000000018 247.50000000000003 124.00000000000001 28942.500000000004
decision_type=2 2 2 2
left_child=1 2 -1 -3
right_child=-2 3 -4 -5
leaf_value=0.014910084111212587 -0.010934137653417506 -0.011415383526298265 0.0050084978466353944 -0.0060139703339806326
leaf_weight=22539.241765037179 4370.6779871881008 2849.3529617413878 14681.938911169767 1094.8423848077655
leaf_count=28505 53830 21046 40392 6113
internal_value=0.00708583 0.00899953 0.0110049 -0.00992048
internal_weight=45536.1 41165.4 37221.2 3944.2
internal_count=149886 96056 68897 27159
is_linear=0
shrinkage=0.01


Tree=82
num_leaves=5
num_cat=0
split_feature=8 31 0 31
split_gain=15535.7 14675.3 8725.62 299.866
threshold=8.5000000000000018 247.50000000000003 33125.000000000007 28942.500000000004
decision_type=2 2 2 2
left_child=1 2 -1 -3
right_child=-2 3 -4 -5
leaf_value=0.012258711561392686 -0.010922722002094865 -0.011144368842952035 -0.0063005864293324389 -0.005005799134274431
leaf_weight=34519.108499512076 4344.9752823114395 2815.6297560930252 2732.5055732876062 1122.4381251558661
leaf_count=57278 54008 20861 11681 6156
internal_value=0.00705878 0.00895606 0.0108969 -0.00939899
internal_weight=45534.7 41189.7 37251.6 3938.07
internal_count=149984 95976 68959 27017
is_linear=0
shrinkage=0.01


Tree=83
num_leaves=5
num_cat=0
split_feature=8 0 8 28
split_gain=15090.8 13210.6 28714.7 3661.95
threshold=8.5000000000000018 124.00000000000001 3.0000000000000004 50.000000000000007
decision_type=2 2 2 2
left_child=1 3 -3 -1
right_child=-2 2 -4 -5
leaf_value=-5.633879551633884e-05 -0.010892886030228205 -0.012994637473150895 0.013121618214278223 0.014764865395725807
leaf_weight=1802.2503213435411 4292.1589821204543 7256.4873900488019 10024.668190002441 21998.933424808085
leaf_count=4834 53816 43572 17577 30280
internal_value=0.00694613 0.00881036 0.00215451 0.0136422
internal_weight=45374.5 41082.3 17281.2 23801.2
internal_count=150079 96263 61149 35114
is_linear=0
shrinkage=0.01


Tree=84
num_leaves=5
num_cat=0
split_feature=8 7 3 2
split_gain=14840.3 8595.8 15802.4 443.175
threshold=8.5000000000000018 4292.5000000000009 2.5000000000000004 9.5000000000000018
decision_type=2 2 2 2
left_child=1 2 -1 -3
right_child=-2 3 -4 -5
leaf_value=0.012489693274731633 -0.010900869255043988 0.016168871823839838 -0.0024355027395686082 0.0073815192158369529
leaf_weight=15668.680013939738 4246.5216869339347 11675.702084101737 12959.637565471232 610.65602009743452
leaf_count=27985 53735 12148 54241 1641
internal_value=0.00688975 0.0087367 0.00573307 0.0157336
internal_weight=45161.2 40914.7 28628.3 12286.4
internal_count=149750 96015 82226 13789
is_linear=0
shrinkage=0.01


Tree=85
num_leaves=5
num_cat=0
split_feature=5 0 2 2
split_gain=14407.8 12601.9 26281 2106.23
threshold=9.5000000000000018 435.00000000000006 1.5000000000000002 15.500000000000002
decision_type=2 2 2 2
left_child=1 3 -3 -1
right_child=-2 2 -4 -5
leaf_value=0.013849341225810699 -0.010611678512770282 0.012439721314270472 -0.013029611114117427 -0.0037815223323821802
leaf_weight=23341.068529769778 4267.6862270981073 9923.3312199786305 6845.1024465784431 696.53007040917873
leaf_count=32704 53345 19920 40384 3217
internal_value=0.00686794 0.0086965 0.00204204 0.0133379
internal_weight=45073.7 40806 16768.4 24037.6
internal_count=149570 96225 60304 35921
is_linear=0
shrinkage=0.01


Tree=86
num_leaves=5
num_cat=0
split_feature=12 28 7 6
split_gain=14525.2 11714.3 6358.01 13354.7
threshold=4.0000000000000009 78.000000000000014 4292.5000000000009 13.784090910000002
decision_type=2 2 2 2
left_child=2 -2 3 -1
right_child=1 -3 -4 -5
leaf_value=0.0106531859867048 -0.011867473777657921 0.011661279061516485 0.015564464488938817 -0.0078699905564035728
leaf_weight=18153.51253695786 6409.6588068976998 3157.3161613494158 12381.3462838009 4953.082412339747
leaf_count=35700 61254 10017 13952 29122
internal_value=0.00683353 -0.00410101 0.00978162 0.00668199
internal_weight=45054.9 9566.97 35487.9 23106.6
internal_count=150045 71271 78774 64822
is_linear=0
shrinkage=0.01


Tree=87
num_leaves=5
num_cat=0
split_feature=7 4 32 9
split_gain=12802.5 23792.9 6057.34 975.241
threshold=4292.5000000000009 26.500000000000004 1.0000000180025095e-35 623.12232082930007
decision_type=2 2 2 2
left_child=1 2 -1 -3
right_child=-2 3 -4 -5
leaf_value=0.004306956225335461 0.015470928124010597 -0.004658304051760407 0.014650883283585509 -0.01153161381571071
leaf_weight=12247.920511633158 12207.765723310411 2949.2128495723009 10533.848238371313 6939.8618642315269
leaf_count=34523 13810 18853 15195 67845
internal_value=0.00673355 0.00346806 0.00909066 -0.00948348
internal_weight=44878.6 32670.8 22781.8 9889.07
internal_count=150226 136416 49718 86698
is_linear=0
shrinkage=0.01


Tree=88
num_leaves=5
num_cat=0
split_feature=30 15 3 3
split_gain=14030.1 8565.6 15183.5 239.272
threshold=-1.0000000180025095e-35 1647731.0764666854 2.5000000000000004 929.50000000000011
decision_type=2 2 2 2
left_child=-1 2 -2 -3
right_child=1 3 -4 -5
leaf_value=-0.010966887416933795 0.012118824432638547 0.015780867415106672 -0.0025135850792040982 0.008248577867397076
leaf_weight=4069.0458029508591 15695.749883763492 11783.35214266181 12933.422419711947 446.83260136842728
leaf_count=52990 27977 12461 55146 1324
internal_value=0.00673812 0.00850178 0.00550833 0.0155072
internal_weight=44928.4 40859.4 28629.2 12230.2
internal_count=149898 96908 83123 13785
is_linear=0
shrinkage=0.01


Tree=89
num_leaves=5
num_cat=0
split_feature=8 31 15 31
split_gain=13818.7 14175.8 5008.98 198.002
threshold=8.5000000000000018 247.50000000000003 1427036.2380000001 28942.500000000004
decision_type=2 2 2 2
left_child=1 2 -1 -3
right_child=-2 3 -4 -5
leaf_value=0.0077609821199592904 -0.010881514358807522 -0.011023661317537346 0.015610345068987159 -0.0060251545145166606
leaf_weight=24603.862532891333 4077.8616727814078 2814.9175792261958 12151.96544739604 1124.0068897977471
leaf_count=55767 53881 21041 13140 6176
internal_value=0.00666566 0.00842446 0.0103567 -0.00960172
internal_weight=44772.6 40694.8 36755.8 3938.92
internal_count=150005 96124 68907 27217
is_linear=0
shrinkage=0.01


Tree=90
num_leaves=5
num_cat=0
split_feature=12 21 0 3
split_gain=13594.6 14105.1 8047.88 8251.86
threshold=4.0000000000000009 41741.750700000011 33125.000000000007 421.50000000000006
decision_type=2 2 2 2
left_child=2 -2 3 -1
right_child=1 -3 -4 -5
leaf_value=0.01295979344541049 -0.011652499777552229 0.015436865397295866 -0.0063769792057503175 -0.0014661872526992741
leaf_weight=27865.563107155263 6807.5726352110505 2677.0241372212768 2936.0293866768479 4621.3208853080869
leaf_count=42137 66741 4553 14093 22811
internal_value=0.00662729 -0.00400466 0.00947434 0.0109074
internal_weight=44907.5 9484.6 35422.9 32486.9
internal_count=150335 71294 79041 64948
is_linear=0
shrinkage=0.01


Tree=91
num_leaves=5
num_cat=0
split_feature=8 31 0 31
split_gain=13275.6 13905.1 8084.99 219.963
threshold=8.5000000000000018 247.50000000000003 121.00000000000001 28942.500000000004
decision_type=2 2 2 2
left_child=1 2 -1 -3
right_child=-2 3 -4 -5
leaf_value=0.013989110263307994 -0.010824246918214526 -0.011298702204267633 0.0043584955295980247 -0.0059654303744519953
leaf_weight=21965.660008341074 4009.0981251075864 2766.5970933958888 14460.271189138293 1092.0549011453986
leaf_count=28476 53852 20960 40087 6023
internal_value=0.00652689 0.00825413 0.0101665 -0.00979384
internal_weight=44293.7 40284.6 36425.9 3858.65
internal_count=149398 95546 68563 26983
is_linear=0
shrinkage=0.01


Tree=92
num_leaves=5
num_cat=0
split_feature=30 31 0 0
split_gain=13063 14306.1 8089.33 204.208
threshold=-1.0000000180025095e-35 247.50000000000003 435.00000000000006 257.50000000000006
decision_type=2 2 2 2
left_child=-1 2 -2 -3
right_child=1 3 -4 -5
leaf_value=-0.010927473946921623 0.013897116544168781 -0.006470040438515387 0.0042248104789421714 -0.011385187158296055
leaf_weight=3932.4138638451695 22213.988771244884 1249.6925308033824 14164.864711269736 2725.9658653587103
leaf_count=53110 28872 6659 39676 21674
internal_value=0.00646748 0.00816303 0.0101315 -0.00984471
internal_weight=44286.9 40354.5 36378.9 3975.66
internal_count=149991 96881 68548 28333
is_linear=0
shrinkage=0.01


Tree=93
num_leaves=5
num_cat=0
split_feature=12 21 31 3
split_gain=13168.7 13497.6 12302.2 4220.93
threshold=4.0000000000000009 41741.750700000011 247.50000000000003 428.50000000000006
decision_type=2 2 2 2
left_child=2 -2 3 -1
right_child=1 -3 -4 -5
leaf_value=0.012384919697235066 -0.011734726887399068 0.015067453333751703 -0.0094838494165757192 0.0006104125546318107
leaf_weight=28494.30579791218 6639.376957282424 2619.2409771233797 3183.926143810153 3410.87846904248
leaf_count=43320 66501 4501 23323 12288
internal_value=0.00645671 -0.00415057 0.00925587 0.0111265
internal_weight=44347.7 9258.62 35089.1 31905.2
internal_count=149933 71002 78931 55608
is_linear=0
shrinkage=0.01


Tree=94
num_leaves=5
num_cat=0
split_feature=8 0 4 32
split_gain=12685.3 11827.6 7770.99 4762.88
threshold=8.5000000000000018 33125.000000000007 420.50000000000006 1.0000000180025095e-35
decision_type=2 2 2 2
left_child=1 2 -1 -3
right_child=-2 3 -4 -5
leaf_value=0.011206472051846631 -0.010784556431847883 -0.012861445860723075 -0.0067417704221663342 0.015209378192117644
leaf_weight=33693.38531909138 3902.0563063845038 3416.62177079916 2596.9705023542047 733.14360905438662
leaf_count=58827 53862 20016 16126 1247
internal_value=0.00643115 0.00809277 0.00992165 -0.00789726
internal_weight=44342.2 40440.1 36290.4 4149.77
internal_count=150078 96216 74953 21263
is_linear=0
shrinkage=0.01


Tree=95
num_leaves=5
num_cat=0
split_feature=12 21 2 7
split_gain=12522.3 12935.6 6652.05 6837.58
threshold=4.0000000000000009 38827.374950000005 9.5000000000000018 5.0000000000000009
decision_type=2 2 2 2
left_child=2 -2 3 -1
right_child=1 -3 -4 -5
leaf_value=0.0030925324713070991 -0.011560532298667594 0.014778568204324228 -0.0053428834995418485 0.013314256301020238
leaf_weight=9150.4526772797108 6535.0163308233023 2607.6641552150249 2924.5153958275914 23006.055618070066
leaf_count=26770 66223 4581 17042 35359
internal_value=0.00637618 -0.00404624 0.00909276 0.0104061
internal_weight=44223.7 9142.68 35081 32156.5
internal_count=149975 70804 79171 62129
is_linear=0
shrinkage=0.01


Tree=96
num_leaves=5
num_cat=0
split_feature=30 31 0 31
split_gain=12257.7 13406.4 8222.89 201.619
threshold=-1.0000000180025095e-35 247.50000000000003 257.50000000000006 28942.500000000004
decision_type=2 2 2 2
left_child=-1 2 -2 -3
right_child=1 3 -4 -5
leaf_value=-0.010895232831317238 0.013613720517430733 -0.011112781433280521 0.0038521705965183198 -0.0060176563791618778
leaf_weight=3799.5527951493859 22048.38202303648 2818.1533615365624 14185.923223309219 1092.1860454231501
leaf_count=53201 28850 22069 39930 6137
internal_value=0.00626894 0.00789395 0.00979251 -0.00969414
internal_weight=43944.2 40144.6 36234.3 3910.34
internal_count=150187 96986 68780 28206
is_linear=0
shrinkage=0.01


Tree=97
num_leaves=5
num_cat=0
split_feature=8 31 0 0
split_gain=12067.5 12728.9 7802.35 185.389
threshold=8.5000000000000018 247.50000000000003 124.00000000000001 257.50000000000006
decision_type=2 2 2 2
left_child=1 2 -1 -3
right_child=-2 3 -4 -5
leaf_value=0.013492889456546317 -0.010758163963728385 -0.0063619485864908577 0.0040341773405899797 -0.011127994163330143
leaf_weight=21735.873388856649 3802.4841643944383 1225.7430165410042 14572.036029405892 2552.2913718521595
leaf_count=28581 53876 6603 40382 20514
internal_value=0.00626409 0.00787927 0.00969716 -0.00958644
internal_weight=43888.4 40085.9 36307.9 3778.03
internal_count=149956 96080 68963 27117
is_linear=0
shrinkage=0.01


Tree=98
num_leaves=5
num_cat=0
split_feature=30 15 29 3
split_gain=11902.7 7842.45 14951.5 263.262
threshold=-1.0000000180025095e-35 1647731.0764666854 26.000000000000004 988.50000000000011
decision_type=2 2 2 2
left_child=-1 2 -2 -3
right_child=1 3 -4 -5
leaf_value=-0.010867276494049794 0.0096827724361002437 0.01506543635574056 -0.0062173158466109837 0.0070185102404370153
leaf_weight=3710.7723817303777 20201.447532780468 11202.613176479936 8360.2992938160896 429.41666600853205
leaf_count=52893 40667 12326 42699 1353
internal_value=0.00626577 0.00784801 0.00502826 0.0147699
internal_weight=43904.5 40193.8 28561.7 11632
internal_count=149938 97045 83366 13679
is_linear=0
shrinkage=0.01


Tree=99
num_leaves=5
num_cat=0
split_feature=30 31 0 0
split_gain=11676.3 12693.6 8034.8 242.763
threshold=-1.0000000180025095e-35 247.50000000000003 257.50000000000006 257.50000000000006
decision_type=2 2 2 2
left_child=-1 2 -2 -3
right_child=1 3 -4 -5
leaf_value=-0.01086967628761292 0.013371041488865533 -0.0058678563454959646 0.0037260515229572541 -0.011290206063469799
leaf_weight=3692.6172685027122 21812.789940476418 1225.8459509238601 14306.076398074627 2616.1299802809954
leaf_count=53028 28775 6605 40169 21507
internal_value=0.00614065 0.00771299 0.00955131 -0.00956469
internal_weight=43653.5 39960.8 36118.9 3841.98
internal_count=150084 97056 68944 28112
is_linear=0
shrinkage=0.01


end of trees

feature_importances:
Bwd_Packet_Length_Min=69
Destination_Port=63
Init_Win_bytes_backward=63
Total_Length_of_Fwd_Packets=26
Fwd_Packet_Length_Max=21
Packet_Length_Variance=20
Init_Win_bytes_forward=20
Bwd_Packet_Length_Max=15
Min_Packet_Length=15
Total_Fwd_Packets=12
Bwd_Header_Length=12
Fwd_Packet_Length_Min=9
Fwd_IAT_Std=9
Fwd_IAT_Min=9
Fwd_Header_Length=9
Flow_Bytes/s=6
Fwd_Packet_Length_Mean=5
PSH_Flag_Count=5
Max_Packet_Length=3
Bwd_IAT_Std=2
Flow_Packets/s=1
Bwd_Packets/s=1
Packet_Length_Mean=1
Flow_IAT_Std=1
Flow_IAT_Min=1
Fwd_IAT_Mean=1
ACK_Flag_Count=1

parameters:
[boosting: gbdt]
[objective: binary]
[metric: binary_logloss]
[tree_learner: serial]
[device_type: cpu]
[data_sample_strategy: bagging]
[data: ]
[valid: ]
[num_iterations: 100]
[learning_rate: 0.01]
[num_leaves: 5]
[num_threads: 0]
[seed: 0]
[deterministic: 0]
[force_col_wise: 0]
[force_row_wise: 0]
[histogram_pool_size: -1]
[max_depth: 3]
[min_data_in_leaf: 500]
[min_sum_hessian_in_leaf: 100]
[bagging_fraction: 0.5]
[pos_bagging_fraction: 1]
[neg_bagging_fraction: 1]
[bagging_freq: 1]
[bagging_seed: 3]
[bagging_by_query: 0]
[feature_fraction: 0.5]
[feature_fraction_bynode: 1]
[feature_fraction_seed: 2]
[extra_trees: 0]
[extra_seed: 6]
[early_stopping_round: 0]
[early_stopping_min_delta: 0]
[first_metric_only: 0]
[max_delta_step: 0]
[lambda_l1: 1]
[lambda_l2: 1]
[linear_lambda: 0]
[min_gain_to_split: 1]
[drop_rate: 0.1]
[max_drop: 50]
[skip_drop: 0.5]
[xgboost_dart_mode: 0]
[uniform_drop: 0]
[drop_seed: 4]
[top_rate: 0.2]
[other_rate: 0.1]
[min_data_per_group: 100]
[max_cat_threshold: 32]
[cat_l2: 10]
[cat_smooth: 10]
[max_cat_to_onehot: 4]
[top_k: 20]
[monotone_constraints: ]
[monotone_constraints_method: basic]
[monotone_penalty: 0]
[feature_contri: ]
[forcedsplits_filename: ]
[refit_decay_rate: 0.9]
[cegb_tradeoff: 1]
[cegb_penalty_split: 0]
[cegb_penalty_feature_lazy: ]
[cegb_penalty_feature_coupled: ]
[path_smooth: 0]
[interaction_constraints: ]
[verbosity: -1]
[saved_feature_importance_type: 0]
[use_quantized_grad: 0]
[num_grad_quant_bins: 4]
[quant_train_renew_leaf: 0]
[stochastic_rounding: 1]
[linear_tree: 0]
[max_bin: 255]
[max_bin_by_feature: ]
[min_data_in_bin: 3]
[bin_construct_sample_cnt: 200000]
[data_random_seed: 1]
[is_enable_sparse: 1]
[enable_bundle: 1]
[use_missing: 1]
[zero_as_missing: 0]
[feature_pre_filter: 1]
[pre_partition: 0]
[two_round: 0]
[header: 0]
[label_column: ]
[weight_column: ]
[group_column: ]
[ignore_column: ]
[categorical_feature: ]
[forcedbins_filename: ]
[precise_float_parser: 0]
[parser_config_file: ]
[objective_seed: 5]
[num_class: 1]
[is_unbalance: 1]
[scale_pos_weight: 1]
[sigmoid: 1]
[boost_from_average: 1]
[reg_sqrt: 0]
[alpha: 0.9]
[fair_c: 1]
[poisson_max_delta_step: 0.7]
[tweedie_variance_power: 1.5]
[lambdarank_truncation_level: 30]
[lambdarank_norm: 1]
[label_gain: ]
[lambdarank_position_bias_regularization: 0]
[eval_at: ]
[multi_error_top_k: 1]
[auc_mu_weights: ]
[num_machines: 1]
[local_listen_port: 12400]
[time_out: 120]
[machine_list_filename: ]
[machines: ]
[gpu_platform_id: -1]
[gpu_device_id: -1]
[gpu_use_dp: 0]
[num_gpu: 1]

end of parameters

pandas_categorical:[]
